{
    "edges": [
        [
            0,
            1
        ],
        [
            0,
            2
        ],
        [
            0,
            3
        ],
        [
            0,
            4
        ],
        [
            0,
            5
        ],
        [
            0,
            6
        ],
        [
            0,
            7
        ],
        [
            0,
            8
        ],
        [
            0,
            9
        ],
        [
            1,
            0
        ],
        [
            1,
            2
        ],
        [
            1,
            3
        ],
        [
            1,
            4
        ],
        [
            1,
            5
        ],
        [
            1,
            6
        ],
        [
            1,
            7
        ],
        [
            1,
            8
        ],
        [
            1,
            9
        ],
        [
            2,
            0
        ],
        [
            2,
            1
        ],
        [
            2,
            3
        ],
        [
            2,
            4
        ],
        [
            2,
            5
        ],
        [
            2,
            6
        ],
        [
            2,
            7
        ],
        [
            2,
            8
        ],
        [
            2,
            9
        ],
        [
            3,
            0
        ],
        [
            3,
            1
        ],
        [
            3,
            2
        ],
        [
            3,
            4
        ],
        [
            3,
            5
        ],
        [
            3,
            6
        ],
        [
            3,
            7
        ],
        [
            3,
            8
        ],
        [
            3,
            9
        ],
        [
            4,
            0
        ],
        [
            4,
            1
        ],
        [
            4,
            2
        ],
        [
            4,
            3
        ],
        [
            4,
            5
        ],
        [
            4,
            6
        ],
        [
            4,
            7
        ],
        [
            4,
            8
        ],
        [
            4,
            9
        ],
        [
            5,
            0
        ],
        [
            5,
            1
        ],
        [
            5,
            2
        ],
        [
            5,
            3
        ],
        [
            5,
            4
        ],
        [
            5,
            6
        ],
        [
            5,
            7
        ],
        [
            5,
            8
        ],
        [
            5,
            9
        ],
        [
            6,
            0
        ],
        [
            6,
            1
        ],
        [
            6,
            2
        ],
        [
            6,
            3
        ],
        [
            6,
            4
        ],
        [
            6,
            5
        ],
        [
            6,
            7
        ],
        [
            6,
            8
        ],
        [
            6,
            9
        ],
        [
            7,
            0
        ],
        [
            7,
            1
        ],
        [
            7,
            2
        ],
        [
            7,
            3
        ],
        [
            7,
            4
        ],
        [
            7,
            5
        ],
        [
            7,
            6
        ],
        [
            7,
            8
        ],
        [
            7,
            9
        ],
        [
            8,
            0
        ],
        [
            8,
            1
        ],
        [
            8,
            2
        ],
        [
            8,
            3
        ],
        [
            8,
            4
        ],
        [
            8,
            5
        ],
        [
            8,
            6
        ],
        [
            8,
            7
        ],
        [
            8,
            9
        ],
        [
            9,
            0
        ],
        [
            9,
            1
        ],
        [
            9,
            2
        ],
        [
            9,
            3
        ],
        [
            9,
            4
        ],
        [
            9,
            5
        ],
        [
            9,
            6
        ],
        [
            9,
            7
        ],
        [
            9,
            8
        ]
    ],
    "edge_weights": [
        0.08888085041353211,
        0.13852712423153068,
        0.15636219221172531,
        0.23086829946028065,
        0.175659334228631,
        0.1878472889937841,
        0.1743476767875718,
        0.03514259420492216,
        0.10432187152975647,
        0.17873850787078105,
        0.09782550853252125,
        0.28632635754580615,
        0.3690275349276879,
        0.30381706978998135,
        0.18156860344477277,
        0.16598620868555436,
        0.14976772752524603,
        0.13772202215879936,
        0.11091373265904014,
        0.12372282091542441,
        0.20912287173525446,
        0.2961995205930643,
        0.1470793141332658,
        0.16766484720088304,
        0.15932601005235636,
        0.04739083096373964,
        0.18685654256753814,
        0.23207163207912007,
        0.31884293237687267,
        0.22083104161727451,
        0.12012010315820643,
        0.20241498261172097,
        0.11338971541518195,
        0.30276796291564434,
        0.0770691191375823,
        0.13584800218742732,
        0.24886169924343626,
        0.36032629517642967,
        0.2312098063559196,
        0.2157627902114143,
        0.153549100715467,
        -0.0016038764092307645,
        0.3159280961922546,
        0.07116059857743995,
        0.22773395361339066,
        0.3216432233381754,
        0.3914877760323394,
        0.28928513134951395,
        0.14380296205524523,
        0.1983806202972751,
        0.11537714715896197,
        0.311499273853018,
        0.09148630419479442,
        0.2876001939722288,
        0.3718049905976226,
        0.48319346318419676,
        0.3654548815733909,
        0.2581914117786024,
        0.22827144047513226,
        0.18566820575345666,
        0.3370564889892522,
        0.28523955882737173,
        0.31286148985055995,
        0.18723426231066842,
        0.1706718172160535,
        0.1886419341294081,
        0.16279393051432667,
        0.2844045212302868,
        0.22322814570096217,
        0.20879657795109896,
        0.0701311688961832,
        0.05485508589786736,
        0.24102533902699275,
        0.2184019340940324,
        0.1436816280219384,
        0.18912619162058153,
        0.16172827765263964,
        0.10678730269447367,
        0.11657200906633847,
        0.20361620292794935,
        0.14325335639700754,
        0.12629298455720228,
        0.17878964298569322,
        0.1280474793082016,
        0.21551539296928013,
        0.2845628332702903,
        0.1687349189569538,
        0.18501724978618395,
        0.09242509297375179,
        0.18100183790915292
    ],
    "node_ids": {
        "3_name": 0,
        "8_name": 1,
        "44_name": 2,
        "45_name": 3,
        "46_name": 4,
        "47_name": 5,
        "48_name": 6,
        "49_name": 7,
        "50_name": 8,
        "51_name": 9
    },
    "database": [
        [
            -0.09454775112094665,
            -0.11552100963268608,
            -0.1183961594456267,
            -0.0918657284820601,
            -0.17929610465414741,
            -0.1372362876714829,
            -0.09627403512887667,
            -0.10807867517921199,
            -0.152306147337102,
            -0.11230971776523219
        ],
        [
            -0.02029990630640882,
            0.01022949184351074,
            0.0288223941077706,
            0.02296370843788248,
            0.02079009853696645,
            0.009871088427571562,
            0.01666628968507705,
            0.006368009177650458,
            0.029881866312565286,
            0.03632580810088043
        ],
        [
            0.09143332334608956,
            0.09392349334548927,
            0.105371092647358,
            0.06434352263913387,
            0.1597844858357212,
            0.12326103254376067,
            0.13677723928683158,
            0.05463423335594764,
            0.15985991189261703,
            0.07348401745429722
        ],
        [
            0.045516202327298694,
            0.004401854527324944,
            0.05751413443148767,
            0.039746107860078594,
            0.11330469188471592,
            0.07151946886736338,
            0.10666422888838256,
            0.051450805321223314,
            -0.03034373345885677,
            0.019375044749064374
        ],
        [
            -0.14307826470572133,
            -0.13911099624797296,
            -0.18461140394117648,
            -0.1276638995816999,
            -0.3082799187582359,
            -0.24244398240031817,
            -0.2940133702681416,
            -0.11318968238154223,
            -0.15003687167705118,
            -0.11942204888106756
        ],
        [
            -0.04849730709813349,
            -0.04390446854246871,
            0.15913486094990142,
            -0.02764582978738314,
            -0.03383383204894494,
            -0.042824232584721234,
            -0.04412981118105877,
            -0.04175663735522106,
            -0.029896988075836295,
            -0.028023816125747003
        ],
        [
            0.008865241931678314,
            0.04401185485290954,
            -0.15581282860603973,
            0.011194463713813246,
            -0.016763480818952542,
            0.0258899299087077,
            -0.02077826250262313,
            0.026223748374668093,
            -0.01386478841655836,
            0.06305758089407593
        ],
        [
            -0.043268386651419466,
            -0.033258151298643124,
            -0.07084552065243278,
            -0.041546418176313965,
            -0.02785180833779216,
            -0.034218812577082286,
            -0.007600283786326961,
            -0.03819467418070628,
            -0.04692930035448842,
            -0.07964524775107384
        ],
        [
            0.047787424311400206,
            0.06359873092913704,
            0.0517319651342041,
            0.030183664313126746,
            0.03016426408502479,
            0.045355124782328504,
            0.03378790743855159,
            0.02197065258899604,
            0.020785600299964513,
            0.03485019091789798
        ],
        [
            0.08793221991823313,
            0.05251488462137782,
            0.06970414377338546,
            0.07117124268623848,
            0.12234756067201441,
            0.09390475333724507,
            0.1093028824227959,
            0.05717089519080512,
            0.16019077539517126,
            0.09624311389974949
        ],
        [
            0.002189119579904919,
            0.05026459823057744,
            0.07007804135329071,
            0.05005148897897019,
            0.1016046831918262,
            0.09005419198639145,
            0.10585799996351561,
            0.06621975516598566,
            0.053803201596862,
            0.005269394273019867
        ],
        [
            -0.10380697093780816,
            -0.15054244102101055,
            -0.1670255052331977,
            -0.12790307720144198,
            -0.21483499007157833,
            -0.2119535969739964,
            -0.2388895223329054,
            -0.12165359372585133,
            -0.198607527784145,
            -0.11390004149711619
        ],
        [
            -0.005900309698538109,
            -0.01807045030490717,
            -0.021557088998099272,
            0.001559597236959559,
            -0.009456936532509314,
            0.01068364116299314,
            0.010376028711370028,
            -0.009524217197135393,
            -0.020306651442871443,
            -0.0023759239566422674
        ],
        [
            0.05214763092935332,
            0.05791392872533763,
            0.0764896116634516,
            0.028370921365230173,
            0.022982535035449586,
            0.02701914590958765,
            -0.0016720662413231002,
            0.04671054906602423,
            0.06057924533851436,
            0.08753298096149176
        ],
        [
            -0.06712375166820456,
            -0.06372378102164863,
            -0.08584750027323813,
            -0.033728504068906456,
            -0.04374513694089596,
            -0.05482743600840817,
            -0.015135308596709973,
            -0.0559498814456814,
            -0.06910848911241002,
            -0.11223898016201184
        ],
        [
            0.0356003194900017,
            0.05304621570195181,
            0.052023816506348436,
            0.028351110316140626,
            0.025873152419831374,
            0.06008296600040905,
            0.011575634847426713,
            0.03022445348154236,
            0.005000587699531711,
            0.02345361776551924
        ],
        [
            0.09296150789822155,
            0.10255151363015269,
            0.12157451724590428,
            0.06764836850968084,
            0.14746466386678922,
            0.09129388428564356,
            0.14087744077954975,
            0.06833265044901635,
            0.17642767613653515,
            0.09258959343046308
        ],
        [
            0.060182341518750126,
            -0.00011179495785967886,
            0.03377154361758916,
            0.04468858305448237,
            0.0800455774532462,
            0.09166122461814227,
            0.08890271861430646,
            0.02668211183579111,
            0.03776809907231929,
            -0.01900866193983597
        ],
        [
            -0.15465915163831806,
            -0.13518905873798837,
            -0.17505158952158556,
            -0.11994802988120237,
            -0.1957968685110885,
            -0.21598683062220625,
            -0.22280760171594208,
            -0.11304206736874234,
            -0.16287592255834057,
            -0.07865040745382418
        ],
        [
            -0.03638705080427354,
            -0.02486316237581654,
            0.20838430601574726,
            -0.032480749216422466,
            -0.05057617166779568,
            -0.031186401593950946,
            -0.021344490362107477,
            -0.02228979573693564,
            -0.03456754107842813,
            -0.024151311119520236
        ],
        [
            0.010429921902854106,
            0.029063054739285554,
            -0.20910417191977165,
            0.022346701931390156,
            0.01674144340297981,
            0.008541560920261176,
            0.009255270670295884,
            0.027825925807649324,
            0.010884217442413469,
            0.07782707271678546
        ],
        [
            -0.0345844174065055,
            -0.03891632205491108,
            -0.06556809925813353,
            -0.02808586487456935,
            -0.034780304558711755,
            -0.024943846289186195,
            -0.027726054635432457,
            -0.032420483368264474,
            -0.017112312089570952,
            -0.08374209332042382
        ],
        [
            0.047341691498236055,
            0.045728635776525306,
            0.07729389289513444,
            0.035675022674219875,
            0.0411082874154744,
            0.05398407622414103,
            0.032790649203371935,
            0.03470709496493554,
            0.002280417652569977,
            0.05430824085716712
        ],
        [
            0.0884997541984564,
            0.08079489819405422,
            0.10111338929721302,
            0.08021743339932627,
            0.1430628628721401,
            0.11247432818088415,
            0.15265276079166398,
            0.07297267654896045,
            0.12212907697890815,
            0.05876121331375733
        ],
        [
            0.019269794683267893,
            0.009074038973694298,
            0.02540080380134563,
            0.01161092625575652,
            0.05263212422268054,
            0.0706335374091597,
            0.06425952460679221,
            0.012107313887934318,
            0.02461371916830396,
            -0.033668490002538076
        ],
        [
            -0.12977934259012922,
            -0.12165141319341957,
            -0.16463138845781589,
            -0.10443136454319119,
            -0.21701397993438057,
            -0.2067858114640079,
            -0.20963263159925608,
            -0.10416982289447221,
            -0.15174725365189187,
            -0.06085871614916222
        ],
        [
            -0.011554071320018539,
            -0.005905293257417649,
            -0.010017047810541246,
            -0.010696234051426001,
            -0.0089877345860703,
            -0.021068045315028983,
            -0.030662051255831574,
            0.0005711779492444113,
            -0.013935969444931917,
            -0.036201556129330736
        ],
        [
            0.026969896732797982,
            0.036484863877202234,
            0.032264367238964364,
            0.007279577438426138,
            0.010539517486273381,
            0.018263153976422558,
            0.007092063433517537,
            -0.008293485506802603,
            0.020645225806544404,
            0.12368334544342058
        ],
        [
            -0.034711523231006014,
            -0.04173737973291758,
            -0.04624543883170004,
            -0.010731269178112263,
            0.012185742122519883,
            -0.009739126572340412,
            0.013364722124248024,
            -0.007006329663818728,
            -0.020532054116567083,
            -0.10855356286172235
        ],
        [
            0.09879955641386884,
            0.07498239415589703,
            0.10831932528814193,
            0.06379520455860774,
            0.07846168924277311,
            0.09536116851800847,
            0.10720268983826103,
            0.07015401334550776,
            0.08422632671096028,
            0.11035595917313457
        ],
        [
            0.08156482036665641,
            0.10050146279219241,
            0.12727580599739247,
            0.07597836170185815,
            0.16832239952107425,
            0.1485391490859115,
            0.1750417849428407,
            0.047866522909164155,
            0.13770209154136162,
            0.020608589452767057
        ],
        [
            -0.0015723101992785038,
            -0.051618111938953826,
            -0.01123053112265604,
            0.006803188941513633,
            0.038724278797291734,
            0.009304038509064805,
            0.037614775231479824,
            0.02816143535175153,
            0.006330071020420047,
            0.008779709464307561
        ],
        [
            -0.14263010351025385,
            -0.08955380812261715,
            -0.17208418855824087,
            -0.0917392235784002,
            -0.21500674480344262,
            -0.19323854158169898,
            -0.2515652177694769,
            -0.09901288938283154,
            -0.10684421688733317,
            -0.08382835496593566
        ],
        [
            -0.015205014423516322,
            -0.010541106064699213,
            -0.014924203731411984,
            -0.02825890411031909,
            -0.014648667600519888,
            -0.024431700169189385,
            -0.012289372996866166,
            -0.02096889072066227,
            -0.04202543705107742,
            -0.03476704549756032
        ],
        [
            0.03214745726236898,
            0.04971878876463354,
            0.04427237900115848,
            0.005721748743782701,
            -0.04455361328434965,
            0.010482191766115895,
            -0.017335897483419904,
            0.007985128411416242,
            0.014729724006790512,
            0.06281992662717745
        ],
        [
            -0.043383557241100545,
            -0.06543892329867987,
            -0.04433846052401551,
            -0.03232100398454038,
            -0.007776940904242052,
            -0.05439096080278552,
            -0.02642337583668833,
            -0.021293088400840987,
            -0.027438546698118238,
            -0.03595254084200955
        ],
        [
            0.03413630788021238,
            0.041038460474107724,
            0.03041906513790346,
            0.11479657364795828,
            0.016047495790608324,
            0.05002529885254381,
            0.018170347581967866,
            0.021561539866173846,
            0.026198129158333583,
            0.07404054609120214
        ],
        [
            0.031928346274718855,
            0.03887566145722421,
            0.04689492814305042,
            -0.04904959027798078,
            0.08689616342131351,
            0.0699515946688547,
            0.07926432973983058,
            -0.008073114169397044,
            0.04685574226672001,
            0.003609212280001106
        ],
        [
            -0.07772404499207516,
            -0.09532207662664122,
            -0.07838738645696079,
            -0.03219312559260623,
            -0.05350858304493236,
            -0.06980577430954082,
            -0.03940850640458948,
            0.024680843911985717,
            -0.13959702167367316,
            -0.1571822844671649
        ],
        [
            -0.0010879115172856557,
            -0.0009473530346850167,
            0.00872776358326599,
            0.009320295652221366,
            0.012109531653426459,
            0.0056722110039300055,
            -0.0060337749997876056,
            0.001793276761181073,
            0.040047078989581375,
            -0.03775193537869942
        ],
        [
            0.05757389352052336,
            0.04163499836924728,
            0.05662974563060923,
            0.01528611346879094,
            0.013105976912255846,
            0.05642830163198859,
            0.04278821942690256,
            0.029207427887787518,
            0.040190189188385295,
            0.09710735617452884
        ],
        [
            -0.02605287222599681,
            0.01855876734456474,
            -0.045326371249882355,
            -0.03126057848953395,
            -0.07378493168534242,
            -0.08016633834631975,
            -0.10575766143422805,
            -0.030071597450184562,
            0.015759359101221115,
            0.04411903441726894
        ],
        [
            -0.014738700882599737,
            -0.03290891493148412,
            0.2556653423515097,
            -0.023311491808590684,
            -0.019423924907109064,
            -0.02701406997446415,
            -1.4542731639061168e-05,
            -0.03456136275844132,
            -0.052580421124585996,
            -0.06591340335756235
        ],
        [
            0.03575642928884559,
            0.006280892442497021,
            -0.2431855802953195,
            0.03443099309786968,
            0.04305372218910436,
            0.04584759953509582,
            0.03522425606915458,
            0.007064857299383331,
            0.016629215472541925,
            0.039845726506628654
        ],
        [
            0.14699601113267685,
            0.1823122867186488,
            0.1658383309815924,
            0.09177543426239906,
            0.2019173287574733,
            0.17969328650865338,
            0.14451882441549943,
            0.09685996961779006,
            0.17915124563551546,
            0.12124606074675365
        ],
        [
            -0.06293453574354585,
            -0.10313732755002197,
            -0.09913812005927497,
            -0.01566333173179213,
            -0.08714596681173503,
            -0.04409646928285235,
            -0.007512166634461193,
            -0.03759320648453429,
            -0.09071628824456077,
            -0.09493095575863852
        ],
        [
            -0.03022799986133995,
            -0.04341350011842282,
            -0.057759673227874175,
            -0.05954850376706558,
            -0.08674684093683482,
            -0.10924997148698845,
            -0.11093908096980379,
            -0.012174456424858149,
            -0.08640921861173101,
            0.003359489184625475
        ],
        [
            -0.07159060346206689,
            -0.04003168030204718,
            -0.06305674111279565,
            -0.04672204774932551,
            -0.06413395472727734,
            -0.06798861614309934,
            -0.06196284373200153,
            -0.048826887222975374,
            -0.04764087016794055,
            -0.0707994744547209
        ],
        [
            0.02830406370738378,
            0.033351685817622545,
            0.06468077734300089,
            0.016681989395418456,
            0.017878497092270712,
            0.031481425807921015,
            0.003240015120572093,
            0.013640670305365948,
            0.02602834425636219,
            0.07838929568860986
        ],
        [
            -0.05479763954468006,
            -0.06017321158674757,
            -0.07311799056982514,
            -0.028294612471568892,
            -0.030251532633564893,
            -0.0487575847090988,
            -0.032586968206612776,
            -0.030857346598509736,
            -0.03877221907824166,
            -0.10545739413772678
        ],
        [
            0.01152108916370942,
            0.03417175381385981,
            0.04293483122678532,
            0.030422042668794974,
            0.017877286187851754,
            0.030475651326121678,
            0.0262159868284238,
            0.02099231191665045,
            0.022685756452227673,
            0.05978268359652608
        ],
        [
            0.10467695927287027,
            0.09068790300213103,
            0.10509305913695131,
            0.0641956180413201,
            0.12890604579612563,
            0.10251587925395736,
            0.1412895540441374,
            0.08162310799530242,
            0.1411120469336956,
            0.08470877441547364
        ],
        [
            0.017921797593007827,
            0.01438321220425609,
            0.05487227037267928,
            0.06839171762542098,
            0.11042220738881176,
            0.11545118527422363,
            0.10204194865896551,
            0.01983818590939157,
            0.06127715760641869,
            -0.011455782563860484
        ],
        [
            -0.11175448221730219,
            -0.12385883427557748,
            -0.1349153282346855,
            -0.14579442037425203,
            -0.23394359708500007,
            -0.21812049763666339,
            -0.22949997242577472,
            -0.10305168521916663,
            -0.18800452816131205,
            -0.07354849498608251
        ],
        [
            -0.02076919967750379,
            -0.015571312895499234,
            -0.05800224278295281,
            -0.01739788925688729,
            -0.03502337568108865,
            -0.020110180382874182,
            -0.032859274052942006,
            -0.026494387238366057,
            -0.03630888342949379,
            -0.031145084173785365
        ],
        [
            0.014390450130622873,
            0.046149393511608905,
            0.017993371083003,
            0.01949703453621951,
            0.026306600424278487,
            0.0237827624039329,
            0.008399583744221423,
            0.022708202960950274,
            0.023105713932194183,
            0.062473600693049525
        ],
        [
            -0.017636566527401643,
            -0.051036408963650026,
            -0.01709701745354253,
            -0.011137750254651996,
            -0.01129231083469931,
            -0.013383532024158984,
            0.02597431247304069,
            -0.01692010585896904,
            -0.001822255556524932,
            -0.06184647454141046
        ],
        [
            0.09617545162242308,
            0.09403403660493997,
            0.09096379765886702,
            0.059577731123583805,
            0.09036039606946988,
            0.07966248222824798,
            0.09011172103358331,
            0.06183912448031313,
            0.06569328060955332,
            0.09764609484850095
        ],
        [
            0.13094064259146854,
            0.1380938503926094,
            0.12920182991346102,
            0.1135203453270203,
            0.20827405158483386,
            0.1670810265465502,
            0.18676696633153891,
            0.0926410643925421,
            0.2399900345399252,
            -0.011045659284914966
        ],
        [
            0.004155199695939693,
            -0.006342077915276911,
            0.0660575690497619,
            0.029341097253585913,
            0.06903676093677302,
            0.07859340243939417,
            0.11099566546366635,
            0.02366805794799487,
            -0.020454735691672554,
            0.11865052875317239
        ],
        [
            -0.14304767655449158,
            -0.1711199215546726,
            -0.21192859822756827,
            -0.14112921004863505,
            -0.26658351311473233,
            -0.23606009754614463,
            -0.2971748061626305,
            -0.11438446006588657,
            -0.2124262351393014,
            -0.14444525260816976
        ],
        [
            -0.025653676184778318,
            -0.030486273512426332,
            0.005565406729931555,
            -0.03071822072515154,
            -0.06120530243587552,
            -0.06045032171313108,
            -0.06565049992332028,
            -0.0260079389647713,
            -0.04135784853097779,
            -0.037277191221610606
        ],
        [
            0.010826483229532946,
            0.043311386460930634,
            0.004243247865544697,
            0.0027622721684224527,
            -0.005908393103008197,
            0.025372876943763195,
            -0.007092513918058263,
            0.01328993148052382,
            0.019871210319362398,
            0.05890982835865849
        ],
        [
            -0.0515329916540507,
            -0.04937667251199701,
            -0.07750794298832221,
            -0.02645932137214127,
            -0.003943957030278833,
            -0.062133226524859364,
            -0.016672480994862626,
            -0.03262521832984136,
            -0.052815390501736115,
            -0.1048989944908979
        ],
        [
            0.019967414135924483,
            0.035765479855802695,
            0.13176150038478207,
            0.01882121484172683,
            0.007305773247592434,
            0.03764295809589696,
            -0.0075484502575713375,
            0.018454174777603277,
            -0.005071935417847784,
            0.06250054130955973
        ],
        [
            0.10888584410213809,
            0.12123711799926529,
            0.04686937869556668,
            0.09220861160279187,
            0.14907905151013306,
            0.1427198912113735,
            0.16994042493310796,
            0.07493782049898112,
            0.2154125558107229,
            0.06394655534491395
        ],
        [
            0.013889174057281739,
            0.010547332385533681,
            0.005338141178900191,
            0.017525328161298342,
            0.057669484183245745,
            0.05721476935474809,
            0.08579830042034783,
            0.024345504403517626,
            -0.005360864651415609,
            -0.015530699794917002
        ],
        [
            -0.11547626417222095,
            -0.11752762874017514,
            -0.1631807233074697,
            -0.11869617265146432,
            -0.21103286785421307,
            -0.21590848345668184,
            -0.22821327447162304,
            -0.0988783838358896,
            -0.1701554069960239,
            -0.052948036784650376
        ],
        [
            -0.02968573256520035,
            -0.05281339235082391,
            -0.016405547855461167,
            -0.02642679965449221,
            -0.030413092500924943,
            -0.018827423458145892,
            -0.03821422734271471,
            -0.030117218251624306,
            -0.044895241314514084,
            -0.12231588917836128
        ],
        [
            0.020545144914357244,
            0.022382493833032063,
            0.047331226139565155,
            0.018977656511605684,
            -0.007716082662094281,
            0.017865452160149703,
            -0.004115930926261946,
            0.013389076619844231,
            0.02592692100068808,
            0.17610661002206035
        ],
        [
            -0.03973955392775136,
            -0.04040879778955184,
            -0.0796336102305064,
            -0.028695959012504046,
            -0.020209795300006356,
            -0.040322823813935066,
            -0.02148586322764312,
            -0.024035620582832165,
            -0.03813260488999179,
            -0.14139169160604054
        ],
        [
            0.04436783778987938,
            0.06351922603692353,
            0.06736766682856649,
            0.05581419731359827,
            0.04940792669013569,
            0.05609831893927708,
            0.043283195390233564,
            0.04850184224773611,
            0.01907325478394603,
            0.13973371760020414
        ],
        [
            0.12969298617669106,
            0.1641874122571182,
            0.14518900709876958,
            0.1002143670401214,
            0.17197557539847994,
            0.17123147210816103,
            0.1845939865678598,
            0.09888075799192497,
            0.197277104586301,
            0.08300992176780275
        ],
        [
            0.05802556787538726,
            -0.007510069812421305,
            0.054626080823013234,
            0.030903656543095737,
            0.10816834480570431,
            0.08595510068305648,
            0.11273239747396338,
            0.02971229397488917,
            0.011644107684688348,
            -0.06694637534415565
        ],
        [
            -0.19508242756089447,
            -0.18446236619196554,
            -0.2048009170671935,
            -0.13822177037586392,
            -0.25856608006819853,
            -0.2505214451722375,
            -0.2836860613968545,
            -0.13259009365883592,
            -0.16409242661523668,
            -0.05561997335024854
        ],
        [
            -0.003397576056044238,
            -0.015473905618067496,
            -0.028578352424341286,
            -0.035367928882414745,
            -0.043192285820380955,
            -0.02631985344677304,
            -0.03568177711357412,
            -0.024606578058982365,
            -0.05284375225639573,
            -0.04904275518039525
        ],
        [
            0.037984628659335135,
            0.06908261140987143,
            0.04642536235774426,
            0.025019101639164404,
            0.01655311154031039,
            0.022984882555422248,
            0.011300898742287513,
            0.016029937261328342,
            0.04563915337210714,
            0.08287762327791354
        ],
        [
            -0.039114753461508445,
            -0.06964763319529202,
            -0.05862456311419949,
            -0.0287845923176146,
            -0.03329749636731841,
            -0.03257863525633367,
            -0.02980526666289124,
            -0.027727849572768096,
            -0.06381891678185689,
            -0.1112649330472126
        ],
        [
            0.0020994907854230416,
            0.047853603832449104,
            0.043328707165532554,
            0.03445891841874202,
            0.030970065780306227,
            0.013377410695252001,
            0.017557396502595912,
            0.04345171930091511,
            0.013852625192439821,
            0.08753417067960464
        ],
        [
            0.10901215801042596,
            0.1205465102323664,
            0.16540139549720057,
            0.09307326964271284,
            0.17367153998410334,
            0.1613822077561652,
            0.18589238272184183,
            0.06345115587344308,
            0.19372931786937186,
            0.034193913329634174
        ],
        [
            0.008198623466954824,
            -0.034002050557236596,
            -0.029265638450706677,
            0.01000850223433078,
            0.048357841395087475,
            0.03809418322796937,
            0.07226245356332742,
            0.031028213195650467,
            0.014637256700410495,
            0.016770022716654953
        ],
        [
            -0.10702163751375915,
            -0.10223388261803479,
            -0.1531305782563001,
            -0.1049073952383743,
            -0.21132070594716834,
            -0.1662619372930913,
            -0.23761851851864255,
            -0.11410461195624572,
            -0.17797330351380192,
            -0.07184839613163507
        ],
        [
            -0.03396466322740094,
            -0.006618422361350851,
            -0.07284405571292396,
            -0.031049165332485862,
            -0.05133645186984187,
            -0.05744656516278049,
            -0.029937838278951884,
            -0.01808104933524733,
            -0.04468456982992755,
            -0.03215255991423677
        ],
        [
            0.04971921435209187,
            0.01192539126820319,
            0.11155662356654229,
            0.0371831311112896,
            0.03138940389018427,
            0.04165415209932016,
            0.021162028672031846,
            0.03397369969675283,
            0.054649090027717534,
            0.07365011154784679
        ],
        [
            -0.02031172063536013,
            -0.010148616398136856,
            -0.03238785463780615,
            0.0062553182837019605,
            0.02051877600873725,
            -0.005167862718709948,
            0.017621666590282303,
            -4.063505680598767e-05,
            -0.011101107761094797,
            -0.0414845201465181
        ],
        [
            0.03551237803852425,
            0.00877016997152874,
            0.04726611399734783,
            0.014036905013119688,
            0.07370216227386225,
            0.07394691437459747,
            0.08527805535190552,
            0.04277802170204856,
            0.03588538664934643,
            -0.0009095977990165038
        ],
        [
            0.05217951167109541,
            0.06630310719980681,
            0.0534615355564691,
            0.08079891937701206,
            0.13401253898950277,
            0.09426237429137829,
            0.12126844135452822,
            0.031679931713038095,
            0.11392793156191955,
            -0.013601019736483033
        ],
        [
            0.028575274514754,
            0.01523318786882022,
            0.018795296006148376,
            0.024481501668324773,
            0.04488245809815,
            0.05805454339373542,
            0.04997631867741614,
            0.009659214229482765,
            0.059257223811351484,
            0.027283174644773256
        ],
        [
            -0.03128606330220346,
            -0.026483489749462796,
            -0.04257657945899551,
            -0.07239715875200983,
            -0.1650505256196093,
            -0.13032353691799228,
            -0.14488252293844336,
            -0.026037550197271664,
            -0.10778074898684034,
            0.04612594008806514
        ],
        [
            -0.038245781562444625,
            -0.05866983302873452,
            -0.06013363984456642,
            -0.03817662739610306,
            -0.042521287286426845,
            -0.05141862454154733,
            -0.053537865456110056,
            -0.04944450023167485,
            -0.043910277355478144,
            -0.04900173432537536
        ],
        [
            0.01034351423359503,
            0.04670568736666636,
            0.04632743595379023,
            0.003363426020647292,
            -0.014648259556151955,
            -0.0010654191111256206,
            -0.025789043101619696,
            0.015583530123942674,
            -0.011911060659990425,
            0.06562651290288801
        ],
        [
            -0.05768369017160832,
            -0.06934802381038979,
            -0.07668716946213232,
            -0.04432664317666604,
            -0.037028111298428784,
            -0.07298228168274687,
            -0.01557393268754026,
            -0.05573705673269627,
            -0.03718954907689159,
            -0.10089195498990222
        ],
        [
            0.025790065582069227,
            0.05987506182159885,
            0.042018745599464266,
            0.035939846042602114,
            0.030825022091131,
            0.05718476284652957,
            0.010686598369027633,
            0.04515606111656631,
            0.023228008620772567,
            0.09913743466230646
        ],
        [
            0.1358943032620778,
            0.13164149701342437,
            0.17478861267253137,
            0.10548840564316442,
            0.20691187298633879,
            0.1565505716394541,
            0.20284314590728392,
            0.08400240274969975,
            0.18285411218835748,
            0.01517244710385085
        ],
        [
            0.02879709096926658,
            -0.013059188146982037,
            0.021373839427006713,
            0.03475032956147153,
            0.05440086648873538,
            0.03151132619259808,
            0.08019706509044577,
            0.02615190789529581,
            0.00869117959754917,
            -0.0023988128571809653
        ],
        [
            -0.1648158997185291,
            -0.1503402683442404,
            -0.205561511561074,
            -0.14345855580465114,
            -0.2740571537798705,
            -0.17879679020582454,
            -0.29726409389038616,
            -0.12618926790908455,
            -0.1992603270639117,
            -0.09254001831070569
        ],
        [
            -0.025645667462750266,
            -0.044300830371720196,
            -0.03815226682556225,
            -0.04482341847286683,
            -0.027904377338159897,
            -0.05577696455188416,
            -0.05092681838105548,
            -0.024084090744622588,
            -0.02270015702579592,
            -0.009214904474538321
        ],
        [
            0.010885506718619153,
            0.07100823740876147,
            0.0340734439309586,
            0.029552007998120383,
            0.005417924747987829,
            0.01694485350925523,
            0.02809241762235329,
            0.013946738042060869,
            0.012469236997935729,
            0.04677530475571978
        ],
        [
            -0.04971878401676155,
            -0.07348723742743862,
            0.0780234411931378,
            -0.022124606471757846,
            -0.01896397187196508,
            -0.02816097369364287,
            -0.020843989978889893,
            -0.015463762524970504,
            -0.048500608763832886,
            -0.07859927274835504
        ],
        [
            0.039358563347893144,
            0.05159341785365773,
            -0.08865939770901045,
            0.029448384182924392,
            0.02683337326108795,
            0.035366885193238246,
            0.030491072215122816,
            0.036386540280408886,
            0.02687348603790668,
            0.05084934423113274
        ],
        [
            0.10907147422260813,
            0.1229096934747878,
            0.13277954897618932,
            0.08164128841582663,
            0.16257161746794738,
            0.14699725400722688,
            0.14295677855752736,
            0.055094547766521895,
            0.15757305359499063,
            0.09929860129562262
        ],
        [
            0.02736147983786419,
            0.011482740607071329,
            0.02467686427750776,
            0.03743403198889794,
            0.06722861505884359,
            0.0907615281522339,
            0.12307968343586353,
            0.03556704128041552,
            0.01686606482475106,
            -0.042753165443996044
        ],
        [
            -0.1078907643514539,
            -0.13187941574817114,
            -0.16631403297886732,
            -0.10923825905752507,
            -0.2025551982917289,
            -0.2250965518515817,
            -0.2461680420017287,
            -0.08021345390927714,
            -0.15907845946316218,
            -0.05803994911583221
        ],
        [
            -0.006702060277309463,
            -0.029907400293002318,
            0.019131938052829645,
            0.000474001745737862,
            -0.018224157153203357,
            -0.015377854829962678,
            0.0078011216191090915,
            0.0012050041761843822,
            0.008927973884026053,
            -0.011371020672537091
        ],
        [
            0.0028521900946547607,
            0.04240776253190054,
            0.01899117212975003,
            -0.004463509250382386,
            -0.01118300479153797,
            0.0009503440029198507,
            -0.038099653537937095,
            -0.021924522698222315,
            0.0019954140638985818,
            0.07386632162452667
        ],
        [
            -0.05518286768575931,
            -0.05832846073534992,
            -0.06955534056258118,
            -0.043441761798808765,
            -0.018662339611149464,
            -0.059167211812276105,
            -0.01839499538549591,
            -0.028903208767109223,
            -0.06933516587224947,
            -0.09142953668199016
        ],
        [
            0.031092631825325207,
            0.05398445350064035,
            0.04669499043789596,
            0.039966632699380056,
            0.016363364066795727,
            0.049237447063482015,
            0.020076042431188934,
            0.023662715952759816,
            0.056861810278206915,
            0.06201534561652999
        ],
        [
            0.11642902755801474,
            0.14162907993881635,
            0.16592971610635143,
            0.08085578552577233,
            0.1494448774977818,
            0.11961962615860086,
            0.16527143937360098,
            0.08311240357715224,
            0.14024009101547286,
            0.07297247464400636
        ],
        [
            0.04166438533626887,
            -0.0024680089627802104,
            0.02735249952320351,
            0.04438245872044877,
            0.0851096789249457,
            0.08860726624965401,
            0.11534509982323662,
            0.03574409898251496,
            0.013057185320625775,
            -0.01264130708750899
        ],
        [
            -0.14210817595683745,
            -0.14721275045175986,
            -0.20338235345464506,
            -0.12114017569338545,
            -0.21898530668904873,
            -0.20141902078224236,
            -0.2635095552437906,
            -0.10878342624380447,
            -0.15798986071797527,
            -0.10160310533737804
        ],
        [
            -0.037437348609351384,
            -0.042874960005674034,
            0.023306428183392222,
            -0.03543762221419633,
            0.0008755627636780616,
            -0.022819391044202053,
            -0.023448035285934643,
            -0.029128531760616222,
            -0.001446719536404073,
            -0.005816887556679029
        ],
        [
            0.02989912608313705,
            0.03280149853500347,
            0.026524890645565347,
            0.023452610480274277,
            -0.006484100433741702,
            0.017502386299333927,
            -0.0020134661394587416,
            0.027821668726592003,
            0.010666580640281753,
            0.02659494215040098
        ],
        [
            -0.022664080532403263,
            -0.042864147202115926,
            -0.09275600183874876,
            -0.037321314318699866,
            -0.04312375085130174,
            -0.039644709764918434,
            -0.013176969778506853,
            -0.038452898662374474,
            -0.03949780356284127,
            -0.04291365019058546
        ],
        [
            0.024098227359404034,
            0.06962964144559905,
            0.04866765654000127,
            0.02890573892045395,
            0.0359277867301373,
            0.019494940687052903,
            0.009734677200385372,
            0.05221488087898077,
            0.03190439942028389,
            0.07007226081635182
        ],
        [
            0.09513853654686166,
            0.12158063533792451,
            0.12960894732545736,
            0.08801681973248696,
            0.14420142620447363,
            0.1456976866521416,
            0.16846669418463098,
            0.060520728787041345,
            0.14739194621648105,
            0.05654475566465905
        ],
        [
            0.05203699034842024,
            -0.02278719575082644,
            0.03534214923621043,
            0.05235608740440645,
            0.10388036366709469,
            0.11106765258102494,
            0.12845605390895912,
            0.025276799305937098,
            0.043502176976177004,
            -0.021500282271812332
        ],
        [
            -0.14152334979514897,
            -0.14458007302686154,
            -0.1917196717187794,
            -0.13418198571401477,
            -0.24381744985563067,
            -0.24821798003021034,
            -0.2562246640893632,
            -0.1080256091709752,
            -0.1889225101304914,
            -0.05540824001432454
        ],
        [
            -0.024424724872277426,
            0.005456118334292714,
            0.010357702414461628,
            -0.0007459528728557263,
            -0.014800822329120195,
            0.009488090104854102,
            -0.029155672634645913,
            0.002214957501860737,
            -0.010691597953368215,
            -0.01431947961504465
        ],
        [
            0.14369366196781208,
            0.104126622073198,
            0.19237523485421104,
            0.11923281241028713,
            0.2877352678509238,
            0.23274805995208,
            0.3154046364216645,
            0.13314144615866425,
            0.2488402476763755,
            0.22146559043612601
        ],
        [
            -0.11386818226680095,
            -0.07794762687722367,
            -0.1923007964836415,
            -0.1132723079404222,
            -0.26198373737983993,
            -0.22491758787988564,
            -0.2707585048229982,
            -0.10579140250244762,
            -0.1941065406645506,
            -0.2150640415282562
        ],
        [
            0.008575033471166282,
            0.028664429754712117,
            0.04387565627758046,
            0.03303368129656509,
            0.06031361672099522,
            0.04428237004289923,
            0.015417909895562298,
            0.011876156328380821,
            -0.010510644272384295,
            0.05118637843167073
        ],
        [
            0.13597210153793365,
            0.12873619836435013,
            0.15190682413572848,
            0.09174815497741384,
            0.15732591745551355,
            0.09274394635753358,
            0.1894655546473598,
            0.0678297005953333,
            0.1887910662649743,
            0.10285970738775474
        ],
        [
            0.0006967052527312445,
            -0.0002442033212188277,
            0.029893038486216827,
            0.024386835732701923,
            0.06782555922630645,
            0.14829311534368536,
            0.1069494755915581,
            0.02189966037137403,
            0.02027922721547515,
            0.054184161722797275
        ],
        [
            -0.14057761427822296,
            -0.13677885214728086,
            -0.19645788702015937,
            -0.1307471162210145,
            -0.25171132541278723,
            -0.24414263640698972,
            -0.30354798409840045,
            -0.10015863717507756,
            -0.2060744355458368,
            -0.1695831345548537
        ],
        [
            -0.03685000736448496,
            -0.040471442584203765,
            -0.02337454658978455,
            -0.03240128927082772,
            -0.04844190231001294,
            -0.06465041509723343,
            -0.03821242722232818,
            -0.04168442393713015,
            -0.02774442136032923,
            -0.07523655416292296
        ],
        [
            0.04480602683469265,
            0.025685226387172688,
            0.059210816165867805,
            0.01858279115493136,
            0.027090474654249574,
            0.03269394063724401,
            -0.01058618907245229,
            0.027392866145306588,
            0.029550699008606685,
            0.06959267291216958
        ],
        [
            -0.04919902581085436,
            -0.032526404893693905,
            -0.07514528951430462,
            -0.030173574430029104,
            -0.045880051940293376,
            -0.030448551218716202,
            -0.011469988015646193,
            -0.028402954807543873,
            -0.05267946756965619,
            -0.06732508169077489
        ],
        [
            0.053996060852028765,
            0.05083751283534499,
            0.04862059626676414,
            0.04419505739868454,
            0.028496506169962715,
            0.020217457440980163,
            0.017170786170333102,
            0.048541052098623166,
            0.014527263480793362,
            0.09817508766988747
        ],
        [
            0.11111795243512279,
            0.13963333279416773,
            0.16398139600606926,
            0.07476894593302796,
            0.15680424167344306,
            0.16767238137066443,
            0.1694749838017332,
            0.10394521111324823,
            0.14701743314185278,
            0.16324541047124175
        ],
        [
            -0.1426376988788869,
            -0.17427216433340492,
            -0.1497972079078716,
            -0.05311143881129832,
            -0.08354822080688806,
            -0.10811091291215352,
            -0.046423790750408145,
            -0.1166076932797308,
            -0.09946433095080054,
            -0.17547429966156292
        ],
        [
            0.011028182463233449,
            0.010300089778530086,
            -0.03468242518209992,
            -0.0262820631997934,
            -0.06907523806881752,
            -0.0479593818758971,
            -0.1107656168850297,
            -0.013723653020054849,
            -0.04279588877363416,
            -0.03459754998757453
        ],
        [
            -0.03394671645637373,
            -0.04723669107538142,
            -0.025745827410374567,
            -0.029439505655265125,
            -0.034062588664704685,
            -0.04809143585866629,
            -0.032691878011128966,
            -0.030177169973782864,
            -0.019299376684660363,
            -0.02526541884450706
        ],
        [
            0.028178421498362777,
            0.04920458647080839,
            0.05562012719636368,
            0.01879720253966699,
            0.01845200194922139,
            0.036327426591866385,
            0.013674680505160103,
            0.035894902239770904,
            0.018514580698222427,
            0.046966527664133895
        ],
        [
            -0.00552427867049754,
            -0.024899683462094202,
            -0.04791404497363823,
            -0.017769173720210085,
            -0.015213223511716473,
            -0.010596220588485361,
            -0.011930299256563581,
            -0.013077666853995334,
            0.010629787360026066,
            -0.04912723292864141
        ],
        [
            0.017853439275310135,
            0.029258137536513962,
            0.021801327269639875,
            0.034033865314003486,
            0.033746264919078284,
            0.0302471163561501,
            0.024416100125123796,
            0.01652847780576225,
            -0.02799097320056959,
            0.05370267303457604
        ],
        [
            0.11697589375513484,
            0.1564211636881041,
            0.14189415623958612,
            0.06530023371054844,
            0.1270835070461714,
            0.1183685677973666,
            0.1258894075297188,
            0.04626280213060449,
            0.1556988554620728,
            0.13731827594224888
        ],
        [
            0.020103011444772223,
            -0.031162613049411703,
            0.0012040722391808423,
            0.03648642292311191,
            0.04715464687699816,
            0.08090075908554209,
            0.1027490087485434,
            0.0505472388110795,
            0.04349322077809201,
            0.014837990588118077
        ],
        [
            -0.14563819672705497,
            -0.14178162468010874,
            -0.14035355411448153,
            -0.11616886814264668,
            -0.16967765530183612,
            -0.20690148597027946,
            -0.22717379258861192,
            -0.11470814848713654,
            -0.18240653725335002,
            -0.20574514097073998
        ],
        [
            -0.042761598166094844,
            -0.03410946707286985,
            0.07803787164404603,
            -0.031188910426130645,
            -0.04463598926436102,
            -0.04255100307010021,
            -0.042014981520499595,
            -0.021341524100990855,
            -0.044306573709518515,
            -0.019050617662408065
        ],
        [
            0.018368580943825347,
            0.02385968919571882,
            -0.07310417295351591,
            0.029251987926756623,
            0.016704055238654036,
            0.013051704473652503,
            7.857825420284903e-05,
            0.01855411668972673,
            0.03579021122573556,
            0.061700210263463506
        ],
        [
            -0.017886386985503044,
            -0.022153572730633092,
            -0.04718146575818172,
            -0.029358286996578886,
            -0.01758811204491667,
            -0.01723706237333472,
            0.011199355225346402,
            -0.006629456348455742,
            -0.009519544575433803,
            -0.06779730397181827
        ],
        [
            0.08668223925176172,
            0.04808109629477911,
            0.10523139482847328,
            0.09760187573833543,
            0.1511714802523049,
            0.14173275626837722,
            0.07076692794802425,
            0.06315714655648758,
            0.09074766327238398,
            0.12986967650903536
        ],
        [
            -0.0017837916133022214,
            0.06362509374705744,
            -0.0061307757307758615,
            -0.011420320570857873,
            0.007891578862419979,
            0.0008517881466818533,
            0.06997898486198126,
            -0.0037479578043668194,
            0.009192328348336554,
            -0.05421121327692363
        ],
        [
            0.02126153750036991,
            -0.008882978322531654,
            0.030699896470184507,
            0.02361765199460894,
            0.0365960481375171,
            0.032537431637886916,
            0.08653903414835193,
            0.02871350082764751,
            0.02386165171543575,
            0.034728318524220536
        ],
        [
            -0.07298742757764987,
            -0.08345158487449078,
            -0.11624380248355652,
            -0.0892917733959846,
            -0.17547995185140322,
            -0.14998500036024326,
            -0.2154968840110306,
            -0.06620966523178817,
            -0.11927005423753478,
            -0.07761270475412335
        ],
        [
            -0.02662782991984089,
            -0.005649711455515849,
            -0.008861238934387006,
            -0.01965734515048803,
            -0.016462602797659043,
            -0.019977526417590763,
            -0.01017954652236297,
            -0.03507608195771833,
            0.0036156790052607746,
            -0.014406733353334644
        ],
        [
            0.04660635310048647,
            0.03232000274527669,
            0.032770391173044894,
            0.009785302714896582,
            0.012471551051620566,
            0.007718103237334767,
            -0.01303426570685648,
            0.01581005757892287,
            0.0026955116839421644,
            0.06495873304421329
        ],
        [
            -0.04269513438479089,
            -0.04718727252086788,
            -0.042646109557006484,
            -0.011725313565625062,
            -0.011045558598752447,
            -0.016014226491307404,
            0.009577664926222973,
            -0.011978252364391595,
            0.003377697046033079,
            -0.0823131043563688
        ],
        [
            0.013243033291976902,
            0.07776949369097239,
            0.06282627161732186,
            0.04974589452542039,
            0.04916419485708337,
            0.0428546551279822,
            0.05591197062116854,
            0.028129636381696632,
            0.011364300786278925,
            0.07349316782458132
        ],
        [
            0.172932472536577,
            0.12741387235124813,
            0.16642976459630615,
            0.11013628332053166,
            0.22176161282129792,
            0.1719982680638051,
            0.26335767194219845,
            0.0959803328502655,
            0.19910541405615848,
            0.16372536580670138
        ],
        [
            0.10447184987366101,
            0.02084798712627295,
            0.008697698978089141,
            0.05024176212190026,
            0.08726755882684722,
            0.16649433223772572,
            0.1185817673559314,
            0.06923021361248027,
            0.021926942369067115,
            0.043792652324255665
        ],
        [
            -0.2028146506138274,
            -0.11662722267693848,
            -0.12512282294759208,
            -0.13586482087170884,
            -0.21826892684502136,
            -0.26906654924994,
            -0.2963910031069068,
            -0.11825584912151049,
            -0.13572210254455655,
            -0.18494858789779783
        ],
        [
            -0.03088986476202099,
            -0.07691162452193362,
            -0.05754025997294593,
            -0.02978522542738915,
            -0.06218101546702387,
            -0.04914476657561856,
            -0.05768941394348118,
            -0.04645395189626453,
            -0.06927053407236411,
            -0.08379299969157561
        ],
        [
            0.009236570995958537,
            0.05042372612505186,
            0.02748591321045074,
            0.008657338382335317,
            -0.02176427021397989,
            0.003937091072062554,
            -0.028508706264908645,
            0.011037866576161903,
            -0.001514419039386039,
            0.07340333555160633
        ],
        [
            -0.07084625726713356,
            -0.08179896794159688,
            0.011774303041952039,
            -0.03705597035149438,
            -0.03912118495864861,
            -0.04682985750153826,
            -0.04972660068028867,
            -0.029376801763364158,
            -0.05361959331634697,
            -0.0896454977697857
        ],
        [
            0.08446983340834963,
            0.06104913258819447,
            -0.01828242437557326,
            0.043407588412363834,
            0.03478720983782002,
            0.06284519226098229,
            0.05558860500682572,
            0.028401191361979494,
            0.05541520087326729,
            0.10171509113840926
        ],
        [
            0.06233432990764359,
            0.09720001151610203,
            0.08682787610322029,
            0.0538190801492586,
            0.12561610081906194,
            0.08310503768989108,
            0.12507038254018013,
            0.047295972969048944,
            0.1273423527796087,
            0.04416790249386365
        ],
        [
            0.03767264951276178,
            0.039514141496194255,
            0.03622294251170827,
            0.03945850218020766,
            0.06315106580311586,
            0.09046747516861012,
            0.10334594284377199,
            0.04933689233438959,
            0.02818798716725171,
            0.04409792907404397
        ],
        [
            -0.14697713414428026,
            -0.15456595784850502,
            -0.15697543503767586,
            -0.12422266541890067,
            -0.22014614187293027,
            -0.19509967365242312,
            -0.2632785194866857,
            -0.11641333820838914,
            -0.17223739948430603,
            -0.15058792705885365
        ],
        [
            -0.031137205444213556,
            -0.026880267719284867,
            -0.11350975455341226,
            -0.03658539738041214,
            -0.04861112257686703,
            -0.06430934264825283,
            -0.0448670903963492,
            -0.01686895610111036,
            -0.040095289148722485,
            -0.0330069437273845
        ],
        [
            0.0440892203785932,
            0.06859039188317967,
            0.13649210698997144,
            0.035508419578850425,
            0.05721616971427279,
            0.0356660922127599,
            0.020686005338435842,
            0.034459571857192894,
            0.02635453684688091,
            0.08345166028431283
        ],
        [
            -0.03763155595055201,
            -0.08968594910746785,
            -0.05737376131648801,
            -0.021463462680350903,
            -0.038470981728506576,
            -0.03759930999088623,
            -0.028502767014091906,
            -0.021857363710613725,
            -0.026048883332188938,
            -0.11188188849145758
        ],
        [
            0.04072691840287196,
            0.07075334103238073,
            0.04827163396215904,
            0.04375338849688307,
            0.04042583954130455,
            0.0634141988668882,
            0.04178990123021517,
            0.06106253344513243,
            0.04935902050225474,
            0.12572260203588642
        ],
        [
            0.12172888909222274,
            0.11487475464611119,
            0.15977380912573497,
            0.08423156273465157,
            0.14742486676052707,
            0.12789392502939334,
            0.17101037413127698,
            0.06391012950233405,
            0.10771874502763629,
            0.18940275012915958
        ],
        [
            -0.07885069082262247,
            -0.10636341576878455,
            -0.085367135628101,
            -0.04208074200823822,
            -0.020118548535162373,
            -0.016264017468304026,
            0.000603772209386011,
            -0.06664467424939213,
            -0.01904832040117932,
            -0.19703461159198143
        ],
        [
            -0.008118570692790317,
            -0.005819771157240472,
            -0.05571943959558773,
            -0.03710789005741069,
            -0.10809136358089494,
            -0.09552959703668623,
            -0.14454841241291047,
            -0.03805899824386397,
            -0.05718827850146457,
            -0.04088875545839715
        ],
        [
            -0.06355802715403297,
            -0.03678366913077291,
            -0.054509416455116436,
            -0.028693526660908297,
            -0.04134484667448207,
            -0.023696541486849104,
            -0.027721843153909492,
            -0.027424292091845492,
            -0.07399499230793644,
            -0.035211049793065274
        ],
        [
            0.02914301574724376,
            -0.002079779181574537,
            0.03487792150532433,
            0.00112190554464206,
            0.010560454388921309,
            -0.01753150121600275,
            -0.010254777548644234,
            0.03133701108459008,
            0.03957924141314595,
            0.06758633411106185
        ],
        [
            -0.053297098173069046,
            -0.01951729064070662,
            -0.055809573158457346,
            -0.02726634118892804,
            -0.021657434033915873,
            -0.011567465515212927,
            -0.006145883360087062,
            -0.03425900863662645,
            -0.03326296408221513,
            -0.08524000411994881
        ],
        [
            0.038964861462216505,
            0.03286330896334316,
            0.03894708679421277,
            0.04073924565197526,
            0.03299035867707187,
            0.021286382889292327,
            0.026216472480634995,
            0.027951019019009732,
            0.007787710876598852,
            0.04775988969756795
        ],
        [
            0.09934581997618508,
            0.09004453836054976,
            0.11213378539977846,
            0.04851907291427876,
            0.1146086852218863,
            0.1020540422599168,
            0.11579774409803695,
            0.06498047600514148,
            0.12137515608868327,
            0.09212439823718749
        ],
        [
            0.04218581428215257,
            0.02294093273336406,
            0.03704004798843907,
            0.06780339136015817,
            0.09219182142834348,
            0.08569932726057003,
            0.1314126217448284,
            0.02524226982748881,
            0.05391109338982325,
            0.04617322143945979
        ],
        [
            -0.12403452283257321,
            -0.14070552686806975,
            -0.1561356544353535,
            -0.12249175242667404,
            -0.21116076548475682,
            -0.19010425196810912,
            -0.23810633064391615,
            -0.10922084452354416,
            -0.1783868496507583,
            -0.11386292952163751
        ],
        [
            -0.028545341528655233,
            -0.020261100326308457,
            -0.016496724120691197,
            -0.03111398417673364,
            -0.03146666751045016,
            -0.02881672539002572,
            -0.039169909778306033,
            -0.022984218145848098,
            -0.01431352409960615,
            -0.06295922211909682
        ],
        [
            -0.005574208316001583,
            0.04530436241321856,
            0.022076599465639973,
            0.018994092411416752,
            0.01149212384305498,
            -0.0074491184798052,
            -0.011809462132865406,
            0.020039613418406335,
            0.025382868276686926,
            0.05497678441764409
        ],
        [
            -0.01958599229069083,
            -0.06488739644258495,
            -0.05543878000179714,
            -0.033503383407321785,
            -0.04172616664520931,
            -0.028171401515857897,
            -0.010480974043512337,
            -0.012744277955789085,
            -0.04535732684398053,
            -0.09083966358584211
        ],
        [
            0.029716491741397316,
            0.08296335749718942,
            0.06385937742229539,
            0.0434559984657123,
            0.08126134007133792,
            0.06157330876968112,
            0.07066714850190778,
            0.04178580794680348,
            0.03815867268143691,
            0.08915987657037305
        ],
        [
            0.1108017886882321,
            0.10078862039928227,
            0.12841161264679735,
            0.09209860588299201,
            0.19333233841406602,
            0.15303354668958646,
            0.21202383366950842,
            0.05711525103804241,
            0.18182599820184947,
            0.15768512989299466
        ],
        [
            0.03785900307056522,
            -0.006897567192180432,
            0.01977617459611286,
            0.039704456309772374,
            0.035521079387420273,
            0.07814732982057751,
            0.08397769747543182,
            0.018115324421663914,
            0.003128850081553697,
            -0.005581244841459665
        ],
        [
            -0.09372082086177325,
            -0.08732654705470033,
            -0.10076927420259207,
            -0.08093958967447631,
            -0.16510589466538533,
            -0.17011659016787076,
            -0.17673547003265958,
            -0.03026563056297077,
            -0.09925866373049105,
            -0.10593610255817687
        ],
        [
            -0.010683635185445184,
            -0.004552405666339188,
            -0.04225317851742076,
            -0.033636144904192145,
            -0.026740032069828834,
            -0.025686173170718363,
            -0.06002145873660719,
            -0.044778051516794676,
            -0.008978561627787207,
            -0.07353115687579986
        ],
        [
            0.008690668670063406,
            0.009314876233032399,
            0.044203179973725124,
            -0.00019438525964415865,
            -0.021563542774750782,
            0.004058579948742813,
            -0.019651780662208046,
            0.010941197773676276,
            -0.03985092086379782,
            0.06127065137139992
        ],
        [
            -0.07735679720698657,
            -0.050110771734624304,
            -0.07671460766486844,
            -0.03239658605416687,
            -0.04369422018910807,
            -0.0689808251140715,
            -0.04695645317414543,
            -0.030087810532749337,
            -0.020667425147369967,
            -0.10204172734542077
        ],
        [
            0.07099666664709148,
            0.044087338045879554,
            0.041397357576904506,
            0.04687250238911311,
            0.05184576410103911,
            0.048857263629248415,
            0.025945857796106253,
            0.0291975401782959,
            -0.004131421557261095,
            0.0760739406391755
        ],
        [
            0.056772710958209016,
            0.059234407991781535,
            0.1043720397196648,
            0.049967666787579884,
            0.13995201399648716,
            0.07983810899907401,
            0.13140493665494266,
            0.04353897502160256,
            0.16497933766207484,
            0.11425390291698434
        ],
        [
            0.024827348302062735,
            0.036642324081637756,
            0.022901606876358283,
            0.017734075758297912,
            0.01193845550118644,
            0.08662157313338908,
            0.0523120538802144,
            0.03970489852717357,
            0.0022001137085256306,
            -0.01318690174015752
        ],
        [
            -0.09273884820278311,
            -0.11016262547107364,
            -0.07794603266090411,
            -0.087691809158219,
            -0.16867568869511076,
            -0.16316582257821874,
            -0.19618430767925527,
            -0.09161060683167085,
            -0.09894325210916688,
            -0.09614685002130824
        ],
        [
            -0.05036426868689017,
            -0.02718577655956128,
            -0.09254600081026769,
            -0.028478261901992846,
            -0.039693777728452534,
            -0.0402441233646795,
            -0.04197081493986324,
            -0.032278719677466206,
            -0.07581879592473773,
            -0.058320324110253785
        ],
        [
            0.016265920426785013,
            0.01443370283458456,
            0.035447732513940955,
            0.015549582001984613,
            -0.006483219570066201,
            0.0010467933376225314,
            -0.011397150910648413,
            0.010507442400005007,
            0.030891184971433838,
            0.08329018316165204
        ],
        [
            -0.025299380656091358,
            -0.025824962041694655,
            -0.05100726426707042,
            -0.03958149800579322,
            -0.007214179123595871,
            -0.03224449985716771,
            0.005710822938532117,
            -0.03230646519880544,
            -0.03622675559892996,
            -0.1323697097991023
        ],
        [
            0.01396714198026014,
            0.02023086567336857,
            0.05698408401875764,
            0.03923594910957784,
            0.025795275419582875,
            0.03312989322287607,
            0.01599320925025166,
            0.03990800420954367,
            -2.3911575491419867e-05,
            0.10535928984502696
        ],
        [
            0.10052492810293373,
            0.12032336654325737,
            0.07339911525034581,
            0.051488198502838645,
            0.10323207851760588,
            0.06839513051976703,
            0.12665514125996366,
            0.05391415144035666,
            0.12561585409880888,
            0.0835716066241981
        ],
        [
            -0.008423402115234346,
            -0.0435648531546568,
            0.010790428139932307,
            0.025774372616967106,
            0.04186650529544045,
            0.06812028638929513,
            0.0358495165891069,
            -0.009140780567352236,
            8.387047301355866e-05,
            0.03808069656798657
        ],
        [
            -0.08439680781413067,
            -0.07466336327907097,
            -0.09813398602837674,
            -0.06704471956039895,
            -0.13001039646195364,
            -0.10667504586363385,
            -0.12309822136965184,
            -0.030215481413770506,
            -0.09340574604281393,
            -0.14041707801816333
        ],
        [
            0.012359783202158636,
            0.010597821824335829,
            0.006412220695298065,
            -0.01568500090827707,
            0.0005941584990081517,
            -0.01883402172778001,
            -0.022574674823655577,
            -0.024797575596450516,
            -0.009715812279813107,
            0.0009198813420912
        ],
        [
            -0.0011610580173726515,
            0.00024908947281426785,
            0.0045592366254115085,
            9.786137615522272e-05,
            -0.028881758017272607,
            0.008185677408442837,
            -0.016916044919620205,
            -0.0012655155608129187,
            -0.016553417022188932,
            0.0272733443708148
        ],
        [
            -0.05804738949003144,
            -0.04230258084305072,
            -0.06030842262831555,
            -0.012921373024972871,
            -0.025449221518209053,
            -0.047541777589158174,
            -0.01922742944423922,
            -0.017368497305081054,
            -0.003617944938027251,
            -0.0867763609226202
        ],
        [
            0.0597552968259272,
            0.054474171536955995,
            0.04966809724232005,
            0.021077322515431623,
            0.025559722405757018,
            0.03779660705043439,
            0.014670137954035212,
            0.026697918213334892,
            -0.017070764828742813,
            0.06342855373300987
        ],
        [
            0.09229879906769234,
            0.0770109972220458,
            0.10560712109504143,
            0.062116866428268774,
            0.11500502615189837,
            0.09241696311598646,
            0.11432734311963075,
            0.04726977042017985,
            0.12277339002671128,
            0.09979252185255366
        ],
        [
            -0.016304570174831334,
            -0.02600982824535214,
            -0.017404662140242777,
            0.006089218390774698,
            0.03205368587007257,
            0.012998549960229477,
            0.0456686402572572,
            0.0054116816922754885,
            0.005114533682259892,
            0.006857480130289084
        ],
        [
            -0.0745897579117012,
            -0.06329795959754647,
            -0.09159437702235577,
            -0.07178411979632962,
            -0.10892322924584724,
            -0.08484860157971968,
            -0.14231091113249855,
            -0.050889514810118996,
            -0.10125424340623795,
            -0.13505776506774314
        ],
        [
            -0.013088059698277477,
            -0.027305434399668926,
            -0.01234396625361417,
            -0.012526633428514983,
            -0.020722066289370566,
            -0.015025939877184147,
            -0.0022724896929758043,
            -0.01986016527918144,
            0.02502162546301384,
            -0.01735981110813678
        ],
        [
            0.0070081653449017844,
            0.018949736563954378,
            0.013461352511094427,
            0.011376003478455965,
            -0.00313964981460102,
            -0.011238544611602952,
            -0.015075160451569758,
            0.013356582108055542,
            -0.019830823253705887,
            0.04756002691321187
        ],
        [
            -0.04917682528893136,
            -0.0180674113170039,
            -0.04390790556324706,
            -0.02326384502370804,
            -0.016626537819541654,
            -0.027572557107403833,
            0.007289498587204735,
            -0.02304349165884992,
            -0.0068933893146162495,
            0.002645391879661063
        ],
        [
            0.03355721648018778,
            -0.0024752767372028806,
            0.044634680520854425,
            0.02883329015629782,
            0.026733866495991965,
            0.02410320889673942,
            0.00810875808787262,
            0.026130233694187294,
            0.0015920407128159342,
            -0.009593837455715737
        ],
        [
            0.078270584295552,
            0.07338676191013221,
            0.08219442206638598,
            0.047212566542080475,
            0.1211083737652821,
            0.09427518678646868,
            0.10205296222308169,
            0.04863782275967837,
            0.10614895728391927,
            0.06700091013458298
        ],
        [
            0.009610260101447443,
            -0.004027953803451778,
            0.011062081372143928,
            0.02688351282640311,
            0.009819648037876993,
            0.024569230126692376,
            0.06621768191734079,
            0.0010754341738485607,
            -0.015130885606248867,
            0.03346732265300684
        ],
        [
            -0.08633226705512526,
            -0.046451744270925466,
            -0.12211977383493987,
            -0.07509797806947296,
            -0.12618274626473433,
            -0.1011374113529104,
            -0.15838590105470227,
            -0.06532614372834353,
            -0.07665373835506267,
            -0.06881551553293436
        ],
        [
            -0.007872866803926654,
            -0.029000618819199186,
            0.006897923358040875,
            -0.018709179544129456,
            0.0072656937616034645,
            -0.022201398595999372,
            -0.005811574966913674,
            0.005794100584336798,
            -0.00875434571460898,
            -0.061479043264057676
        ],
        [
            0.033530538738189924,
            0.042061683620150114,
            0.05729427971230834,
            0.02132312517619603,
            0.014428232566820826,
            0.03749118626686318,
            0.045214232163601265,
            0.01940658479528337,
            0.046132643784311755,
            0.08215576303110045
        ],
        [
            -0.0020884335821068634,
            0.016994979235717467,
            -0.01888320839333202,
            0.00972829306843323,
            0.03480264068184863,
            0.06990985178901568,
            0.03720890714404629,
            0.011137638961435381,
            -0.0016681706080130532,
            -0.04838786487892033
        ],
        [
            0.039182939824193797,
            0.02321828878529164,
            0.026037678058505265,
            0.02667559106380149,
            -0.009086958216413421,
            -0.033460213480730416,
            -0.022182413151131286,
            0.01235093665704548,
            0.011338896603251492,
            0.09457236252081941
        ],
        [
            0.0862630811005925,
            0.05013028387191365,
            0.07344977288967625,
            0.047434267172082406,
            0.12588254477820304,
            0.0882515364477881,
            0.1342693200736688,
            0.05452694775640729,
            0.07733824496444336,
            0.08296654957924249
        ],
        [
            -0.016873050896544783,
            -0.017895088013134886,
            0.014601686270553194,
            0.026294477286086526,
            0.05057203554094819,
            0.030298578352890793,
            0.0826507388377874,
            -0.01056805547360834,
            -0.008990530960818477,
            -0.013372940949641032
        ],
        [
            -0.08417332192859395,
            -0.04083274250010882,
            -0.1066393684529911,
            -0.07718378423822181,
            -0.1558271603149532,
            -0.1264022271547795,
            -0.20183148991261754,
            -0.05652324689504773,
            -0.043535542884539924,
            -0.1416077879405016
        ],
        [
            -0.03421491391749437,
            -0.07392256163147598,
            -0.04542514315451461,
            -0.039376188034239645,
            -0.061319672548577286,
            -0.041242945677904624,
            -0.036196874329770395,
            -0.02558493589431038,
            -0.053156178690291433,
            -0.04336802386700406
        ],
        [
            0.024209298482344155,
            0.04282202644848865,
            0.05145275332227166,
            -0.0004253583941719874,
            0.011099841225022444,
            -0.007902927843151358,
            -0.019518831029685157,
            0.014644094269478602,
            0.038395189953002895,
            0.08160441865971252
        ],
        [
            -0.06995532538337654,
            -0.05536287085400596,
            -0.0691724846023402,
            -0.02479902619739882,
            -0.04553360448161309,
            -0.03523023190846819,
            -0.0285968234347721,
            -0.026481057265494934,
            -0.07253270965310027,
            -0.12810674186354165
        ],
        [
            0.0387762169621135,
            0.0622253773839426,
            0.044676943283349035,
            0.03207201473403398,
            0.04844970210618363,
            0.03688946547979227,
            0.025806464956808856,
            0.02540748897240222,
            -0.005167996371411465,
            0.07906180532552454
        ],
        [
            0.06758229922887432,
            0.028903479724556036,
            0.0628712831773771,
            0.04102692345770914,
            0.058205413283367174,
            0.05761522484621562,
            0.07048848395736418,
            0.030431002343103253,
            0.08453952691238137,
            0.11019601126715478
        ],
        [
            0.0030436919001006757,
            -0.01733918051048977,
            0.008496103760277207,
            0.017464180330478585,
            0.05107917675777962,
            0.03140809259521993,
            0.06296652634827332,
            0.007078865311816562,
            -0.017666811573578467,
            -0.0018187145661833215
        ],
        [
            -0.08983350775075502,
            -0.02907026302675625,
            -0.08090864697371102,
            -0.06317688825183085,
            -0.1396039941961462,
            -0.07737884250176774,
            -0.14297247260742726,
            -0.040890957891318025,
            -0.06537374953517555,
            -0.1377183131334785
        ],
        [
            -0.005222771298271672,
            -0.0330397746084965,
            -0.02783348964249993,
            -0.01815945183609774,
            0.0023794801924054976,
            -0.030435770560688274,
            -0.04057704854494587,
            -0.01721935585529305,
            0.0011580110633469531,
            -0.04280203258572324
        ],
        [
            0.036000635029998285,
            0.03024588307546172,
            0.15759539896221375,
            0.016249997306915898,
            -0.01735224522340645,
            -0.009024514791826033,
            0.0036132889147009184,
            0.0005799801848958563,
            -0.00795920950598189,
            0.0857192239412794
        ],
        [
            -0.0403179562332204,
            -0.03546304068523254,
            -0.17498918894544763,
            -0.016930350203900962,
            -0.0013072157724408062,
            -0.0025987197517435,
            0.014670084212651369,
            -0.016181640167524963,
            0.01383490558161965,
            -0.09054620016239595
        ],
        [
            0.06540001634189205,
            0.045501411765077326,
            0.08367759329408521,
            0.038373831354217874,
            0.03593752324666585,
            0.04959709882231092,
            0.03472433107510056,
            0.052590362992159745,
            0.008179749145734827,
            0.12106911581550117
        ],
        [
            0.04908804076875872,
            0.05960714715621246,
            0.059627310597614,
            0.042140139339428145,
            0.0732669373786253,
            0.06047469973632072,
            0.08285101818132534,
            0.03371623800111226,
            0.08310215179853192,
            0.0816881317996182
        ],
        [
            0.0075007623747927465,
            -0.00558286682843423,
            0.02722950236749816,
            0.007793866797150328,
            0.04513838045528207,
            0.03393627858100179,
            0.04581319792071126,
            0.011241092060219476,
            -0.0013410935656355538,
            0.046590172651055195
        ],
        [
            -0.06846663385466267,
            -0.040049285490810715,
            -0.13118863367044864,
            -0.06443515530296598,
            -0.11677211783672248,
            -0.1043271313377181,
            -0.13965701023519345,
            -0.04601695758628499,
            -0.06652626093615949,
            -0.18153377197661102
        ],
        [
            -0.024798551348877984,
            -0.03958125317411443,
            -0.015327834895002085,
            -0.017457977596033236,
            -0.020828383389054406,
            -0.008831954318152646,
            -0.02182866729491101,
            -0.03320360422291452,
            -0.03193234693799696,
            -0.022149702748226918
        ],
        [
            0.030238575163489767,
            0.019692325858501447,
            0.03032669787023043,
            0.00649070828578957,
            -0.007994640069743403,
            -0.001996400058773995,
            0.0033000203633050396,
            0.01088574031074599,
            0.00026241779255636866,
            0.045369178969181134
        ],
        [
            -0.05568450690728102,
            -0.05073364271910244,
            -0.04200669457644446,
            -0.022767240010969525,
            -0.01819952439824865,
            -0.03518485978807759,
            -0.03680516299313402,
            -0.02253638658267909,
            -0.017269547837359733,
            -0.09548519042887549
        ],
        [
            0.05288660396072817,
            0.06923894020048085,
            0.04223077213587634,
            0.03882447679765458,
            0.03882387773847942,
            0.044711632231359016,
            0.07076275201212517,
            0.03994772345503522,
            0.005552876952304109,
            0.12609374476575086
        ],
        [
            0.044155563529597985,
            0.04107140623669309,
            0.07480592284475547,
            0.034946439253103256,
            0.05951846419565862,
            0.04861946984170057,
            0.06321473352139892,
            0.03112345745363651,
            0.11154385045695159,
            0.054422013671689196
        ],
        [
            0.030439430122880973,
            -0.0009567953446589228,
            0.026470613723389547,
            0.022618329501976814,
            0.06257680563702278,
            0.04421272846831592,
            0.06059875584535235,
            0.03294453095375252,
            -0.006401529865364297,
            0.019033079263834685
        ],
        [
            -0.08993782781381743,
            -0.08327255834137393,
            -0.0950160409082012,
            -0.06453596006063297,
            -0.12029061610733388,
            -0.1042350197950781,
            -0.1366122898638145,
            -0.06599312554716547,
            -0.0672937243752223,
            -0.12078247862494551
        ],
        [
            -0.004946858423802769,
            -0.020291991212374183,
            -0.02987684021487748,
            -0.02131868159468875,
            -0.03487120648115655,
            -0.014547076068423925,
            -0.04210084887733842,
            -0.026596212058552032,
            -0.026248192533683823,
            -0.06879715785043339
        ],
        [
            0.022837912858057696,
            0.05093423522344259,
            0.040285677577731674,
            0.013769549654426283,
            0.011699882933870337,
            -0.003387309637725544,
            0.014830678189869023,
            0.03348925281006951,
            0.025858641455407172,
            0.07471047841159267
        ],
        [
            -0.059461178662328584,
            -0.03932331760131336,
            -0.04633918014228229,
            -0.01629370351525125,
            -0.021815155427702265,
            -0.00020937098093132267,
            -0.004098887474487445,
            -0.028170017182146623,
            -0.026141931427240694,
            -0.07267991775879262
        ],
        [
            0.058415566803567076,
            0.046281474503109044,
            0.0462138521535025,
            0.04290490660492563,
            0.06434616383127298,
            0.05047163339656477,
            0.047001573709340105,
            0.04357141929944472,
            0.006618088296906466,
            0.08748269556902916
        ],
        [
            0.15978273655046246,
            0.13238357943267082,
            0.1547800047859732,
            0.08452419569039643,
            0.15346696372272536,
            0.1343477280714677,
            0.17143460062460064,
            0.08252007778087253,
            0.19366402406438835,
            0.13910968047759237
        ],
        [
            0.05589157930454003,
            0.0486166577704332,
            0.08674248986099481,
            0.0665934275424874,
            0.1350883724016752,
            0.16213002466995521,
            0.1966631565479987,
            0.08586848651037918,
            0.06644360622163159,
            0.052181926678621315
        ],
        [
            -0.15547497380003852,
            -0.1599681594376616,
            -0.19325751179319223,
            -0.10148068516875491,
            -0.20644625790105642,
            -0.19971896840566053,
            -0.2513354758190911,
            -0.11964715282487684,
            -0.1090896384978908,
            -0.15851608555700197
        ],
        [
            -0.04447544780150481,
            -0.029044943390137246,
            -0.03606783179221584,
            -0.040557606939804564,
            -0.07982765711231374,
            -0.05976064188993174,
            -0.07114209113154968,
            -0.04974590391094,
            -0.06305673307394938,
            -0.09677437286841195
        ],
        [
            0.04534019998243577,
            0.03570554578355023,
            0.023108061207429642,
            0.005303472561784067,
            0.020022833557865244,
            0.015637011593989225,
            -0.0252092630185545,
            0.011374766593190894,
            -0.028320398691381643,
            0.06411324506241156
        ],
        [
            -0.10962369713526612,
            -0.05703371843762184,
            -0.08732021771337149,
            -0.04839313271977075,
            -0.04428502803999185,
            -0.0702893128449174,
            -0.033074995765364296,
            -0.05130793865441302,
            -0.06506804128647264,
            -0.0968337793669713
        ],
        [
            0.04817061840931483,
            0.01890279072445611,
            0.04561962113414274,
            0.015816811259355995,
            0.002344985256281129,
            -0.0032658826203037228,
            -0.00765839953167663,
            0.016182843662308405,
            -0.010271446692888153,
            0.08680267886068194
        ],
        [
            0.12398511142888813,
            0.14364448643383226,
            0.16973869113971268,
            0.084963314999047,
            0.21357710069874852,
            0.19492723012643093,
            0.1948816442866145,
            0.10766209974742094,
            0.19868849763101246,
            0.1022299766667858
        ],
        [
            0.04837231936532119,
            0.017121339709309902,
            0.010930507231764308,
            0.05397095324938933,
            0.06191077986165133,
            0.08276173412418542,
            0.14076788977841292,
            0.01742926303086295,
            0.044776677495155015,
            0.008984841927079712
        ],
        [
            -0.16777587171092942,
            -0.16925595793697584,
            -0.06108040438423351,
            -0.12165966179458787,
            -0.2647001008962725,
            -0.2599581505659734,
            -0.3165860829733542,
            -0.11605551044431076,
            -0.19854486038238403,
            -0.11383930371883316
        ],
        [
            -0.06011875467707534,
            -0.04229832083854143,
            -0.16887279561070834,
            -0.044804783699206624,
            -0.05564013172941584,
            -0.043946143748504835,
            -0.05779911033071952,
            -0.03947450339749889,
            -0.03375344174648154,
            -0.08382730734769073
        ],
        [
            0.04508199206725816,
            0.04769301616928043,
            0.046340579378412086,
            0.01291342903665238,
            0.010654815636046366,
            0.028732826855912552,
            0.014145664450157136,
            0.0338584597332435,
            0.010023538941921928,
            0.07549681590689772
        ],
        [
            -0.055483669360401555,
            -0.05287886612686357,
            -0.032276748853976536,
            -0.025550723825667532,
            -0.024049810369394325,
            -0.07052489157269345,
            -0.025223066797166294,
            -0.038826260909793076,
            -0.05754615044643602,
            -0.06399258963965254
        ],
        [
            0.047928860512521265,
            0.05571276241170528,
            0.03186806155951623,
            0.036677828177284044,
            0.03876773856617577,
            0.076384540897602,
            0.028582785253017662,
            0.04273855600061538,
            0.024784085384172455,
            0.07012169491275544
        ],
        [
            0.11207088701811435,
            0.11868799740080449,
            0.12190487681758944,
            0.08361111871043075,
            0.14706599471970472,
            0.13787899613866425,
            0.1412060620708643,
            0.0857246883617053,
            0.16086953352358654,
            0.11684104982852572
        ],
        [
            0.04820573794713734,
            0.0073225250575753575,
            0.04048889225453517,
            0.03746651780070365,
            0.07568325645393609,
            0.07569726100445942,
            0.11013216758920055,
            0.028778946230529956,
            0.03749934844412217,
            0.0436564171920919
        ],
        [
            -0.12500638538421344,
            -0.1247709178926058,
            -0.15926674187572315,
            -0.10263385554699828,
            -0.19758849725132088,
            -0.1940042767633363,
            -0.20989899716889493,
            -0.1024726210151799,
            -0.1712937082867403,
            -0.14547213435759992
        ],
        [
            -0.05826119660248588,
            -0.014312048294230328,
            -0.04900883937936722,
            -0.03645752729170426,
            -0.03736458549273805,
            -0.05439222121209186,
            -0.04218822828202845,
            -0.04202357939391299,
            -0.01769138686806132,
            -0.05601550702951508
        ],
        [
            0.028535351707143303,
            0.008337139813133554,
            0.043422840719709616,
            -0.01987061692863687,
            -0.013577066423713674,
            0.012064293086521127,
            -0.013403435898181354,
            0.03317668946115371,
            -0.002744053674935465,
            0.05423078849692936
        ],
        [
