{
    "edges": [
        [
            0,
            1
        ],
        [
            0,
            2
        ],
        [
            0,
            3
        ],
        [
            0,
            4
        ],
        [
            0,
            5
        ],
        [
            0,
            6
        ],
        [
            0,
            7
        ],
        [
            0,
            8
        ],
        [
            0,
            9
        ],
        [
            1,
            0
        ],
        [
            1,
            2
        ],
        [
            1,
            3
        ],
        [
            1,
            4
        ],
        [
            1,
            5
        ],
        [
            1,
            6
        ],
        [
            1,
            7
        ],
        [
            1,
            8
        ],
        [
            1,
            9
        ],
        [
            2,
            0
        ],
        [
            2,
            1
        ],
        [
            2,
            3
        ],
        [
            2,
            4
        ],
        [
            2,
            5
        ],
        [
            2,
            6
        ],
        [
            2,
            7
        ],
        [
            2,
            8
        ],
        [
            2,
            9
        ],
        [
            3,
            0
        ],
        [
            3,
            1
        ],
        [
            3,
            2
        ],
        [
            3,
            4
        ],
        [
            3,
            5
        ],
        [
            3,
            6
        ],
        [
            3,
            7
        ],
        [
            3,
            8
        ],
        [
            3,
            9
        ],
        [
            4,
            0
        ],
        [
            4,
            1
        ],
        [
            4,
            2
        ],
        [
            4,
            3
        ],
        [
            4,
            5
        ],
        [
            4,
            6
        ],
        [
            4,
            7
        ],
        [
            4,
            8
        ],
        [
            4,
            9
        ],
        [
            5,
            0
        ],
        [
            5,
            1
        ],
        [
            5,
            2
        ],
        [
            5,
            3
        ],
        [
            5,
            4
        ],
        [
            5,
            6
        ],
        [
            5,
            7
        ],
        [
            5,
            8
        ],
        [
            5,
            9
        ],
        [
            6,
            0
        ],
        [
            6,
            1
        ],
        [
            6,
            2
        ],
        [
            6,
            3
        ],
        [
            6,
            4
        ],
        [
            6,
            5
        ],
        [
            6,
            7
        ],
        [
            6,
            8
        ],
        [
            6,
            9
        ],
        [
            7,
            0
        ],
        [
            7,
            1
        ],
        [
            7,
            2
        ],
        [
            7,
            3
        ],
        [
            7,
            4
        ],
        [
            7,
            5
        ],
        [
            7,
            6
        ],
        [
            7,
            8
        ],
        [
            7,
            9
        ],
        [
            8,
            0
        ],
        [
            8,
            1
        ],
        [
            8,
            2
        ],
        [
            8,
            3
        ],
        [
            8,
            4
        ],
        [
            8,
            5
        ],
        [
            8,
            6
        ],
        [
            8,
            7
        ],
        [
            8,
            9
        ],
        [
            9,
            0
        ],
        [
            9,
            1
        ],
        [
            9,
            2
        ],
        [
            9,
            3
        ],
        [
            9,
            4
        ],
        [
            9,
            5
        ],
        [
            9,
            6
        ],
        [
            9,
            7
        ],
        [
            9,
            8
        ]
    ],
    "edge_weights": [
        0.1615916451644578,
        0.08064829727085793,
        0.07962984470141966,
        0.12617012101003658,
        0.04227655271826521,
        0.3047213179616574,
        0.10191652218691431,
        0.29265797007636346,
        0.5102108387436085,
        0.12114767802162094,
        0.23339865556180234,
        0.1558020151539836,
        0.2892383151307853,
        0.1500112945074782,
        0.39290204736558215,
        0.18637692194433653,
        0.4950330883255237,
        0.3202326804441821,
        0.03935793349058702,
        0.12180465911074245,
        0.05251484396068041,
        0.15496968549377818,
        0.026280735046256002,
        0.24971041830774388,
        0.025764441139084708,
        0.2443366927566126,
        0.2200405057615223,
        0.06406615725508165,
        0.18546672764641317,
        0.10601145750187528,
        0.266978224244687,
        0.07672466824785104,
        0.37129967879572023,
        0.11228955937897625,
        0.47584761684047094,
        0.3377497257081744,
        0.08166942468333523,
        0.22463789376157145,
        0.26260370034382413,
        0.14145518543126548,
        0.17370402124632375,
        0.26840723580054215,
        0.20195931975134573,
        0.33549607737487747,
        0.26732638064902703,
        0.01639746832485651,
        0.09125056154154958,
        0.046786368716750605,
        0.030154491860079718,
        0.13161258139035956,
        0.2703670937598762,
        0.036967229129980544,
        0.2684096067661734,
        0.22416468749647672,
        0.22879527823365975,
        0.27212017482543904,
        0.14163632239331045,
        0.22317682880065842,
        0.22509171399749164,
        0.17744549872470028,
        0.19453632811511887,
        0.1310632140767042,
        0.19081358438839308,
        0.035368918064478096,
        0.05012880351281305,
        0.03162614031725524,
        0.043295179189858354,
        0.1293810269487658,
        0.012289898777205219,
        0.2982050965225147,
        0.2989775623531314,
        0.24815759823221353,
        0.19179739204489357,
        0.31403859098651743,
        0.1613498800083123,
        0.217101661486545,
        0.2774793617412553,
        0.1646365158887249,
        0.12295108834762965,
        0.2029003648547385,
        0.2945741640296675,
        0.2519779144437155,
        0.18444830943663337,
        0.09820986461105467,
        0.14669384667382376,
        0.16869715205975777,
        0.11350756497929355,
        0.1254479275987712,
        0.14384560547243289,
        0.15281131838366968
    ],
    "node_ids": {
        "BEVERAGES_name": 0,
        "BREAD/BAKERY_name": 1,
        "CLEANING_name": 2,
        "DAIRY_name": 3,
        "DELI_name": 4,
        "GROCERY I_name": 5,
        "MEATS_name": 6,
        "PERSONAL CARE_name": 7,
        "POULTRY_name": 8,
        "PRODUCE_name": 9
    },
    "database": [
        [
            0.21055585422192816,
            0.5633990683278339,
            0.6166788163955068,
            0.27098444387433823,
            0.5386117484556915,
            0.3456003964001526,
            0.18160214072606484,
            0.4375031834156777,
            0.31889836874826477,
            0.0
        ],
        [
            -0.0590384649467422,
            -0.16837387726167058,
            -0.15520726332880486,
            -0.06273759824614597,
            -0.1573601193205214,
            -0.09809406840402102,
            -0.03738702943742547,
            -0.11806652065400092,
            -0.07556314828183389,
            0.0
        ],
        [
            0.006090824772110981,
            -0.037490677876214074,
            -0.03171907617879982,
            0.0017142057513352127,
            -0.03534715904583419,
            -0.01566291484579274,
            0.04398694574521081,
            -0.03221616665817756,
            0.0022457537911185765,
            0.0
        ],
        [
            0.06986134659805876,
            0.12203126450748447,
            0.14964047847841216,
            0.0575366746740677,
            0.12335016506852581,
            0.09030037776396199,
            -0.006533199579100091,
            0.14047776702490705,
            0.06185355614198254,
            0.0
        ],
        [
            0.024711852591406652,
            0.09713371855239811,
            0.03451903641605092,
            0.006740210369195587,
            0.08566168696496113,
            0.032515483350960106,
            0.008755410973227434,
            0.07248000814954408,
            0.05598504045053232,
            0.0
        ],
        [
            -0.10209959177886346,
            -0.19918920366941995,
            -0.2009592763179695,
            -0.09120274272920215,
            -0.22602766447525452,
            -0.12721912465936075,
            -0.031191796105506514,
            -0.21545357306575658,
            -0.1335385410375304,
            0.0
        ],
        [
            -0.013818078702199421,
            -0.03977913950212314,
            -0.04109645780178267,
            -0.015241271544184531,
            -0.04731825891770136,
            0.00017338386666210237,
            -0.01849076831292687,
            0.02302246218102172,
            -0.031182410206563455,
            0.0
        ],
        [
            0.002862274104837803,
            0.004259493242625201,
            -0.017537029059942366,
            0.020034050889754434,
            -0.015551471055397947,
            -0.029902708647398468,
            0.02571270323458527,
            -0.06672439260428867,
            -0.005397829022208478,
            0.0
        ],
        [
            -0.016305214714865526,
            -0.040381018524527135,
            -0.0359273004407038,
            -0.03140378291391657,
            -0.01602320334938165,
            -0.03376865387237932,
            -0.034944462368917906,
            -0.048515254927927465,
            -0.024951997837826506,
            0.0
        ],
        [
            0.02482114479148821,
            0.00962199824006621,
            -0.0005881573279432617,
            0.02427875084544162,
            0.025703297008985077,
            0.012154037385818994,
            0.04597444670282952,
            0.003692762186115195,
            0.044670405797675256,
            0.0
        ],
        [
            0.0648693515132539,
            0.12389080588900164,
            0.14488551641870173,
            0.0570352403386431,
            0.11926334070672612,
            0.08196250211665651,
            -0.011998637533598838,
            0.09901696123873074,
            0.04672928005889576,
            0.0
        ],
        [
            0.029833816779011174,
            0.11054617642495063,
            0.04166804731767132,
            0.015381206707558825,
            0.10780439559986693,
            0.05506053603287547,
            0.0115233020257694,
            0.07510314266795698,
            0.07487361506416984,
            0.0
        ],
        [
            -0.09646956655304217,
            -0.18150960273210937,
            -0.1651230988435668,
            -0.08243347249107913,
            -0.20746893541876377,
            -0.12183392476115254,
            -0.045392209024273544,
            -0.16062242143330108,
            -0.14376070706595537,
            0.0
        ],
        [
            -0.010607251094398917,
            -0.005713460905463652,
            0.001134895125749713,
            0.0014926417426592287,
            0.0013733327014263663,
            0.004205846270516483,
            0.05518670738491879,
            0.013523149798808143,
            0.0076451150912342225,
            0.0
        ],
        [
            0.007437777292034653,
            0.01629013066441326,
            0.03316875973358957,
            0.03459896914429647,
            -5.391766870288528e-05,
            0.01664828454345657,
            -0.04117618303311538,
            0.014669179442774904,
            0.008363123494764646,
            0.0
        ],
        [
            -0.02208293210295917,
            -0.05108190732816387,
            -0.06738129162662776,
            -0.04070947127830771,
            -0.02588040267585129,
            -0.0357634266749671,
            -0.010169805906520252,
            -0.04744562726022511,
            -0.03342859741984147,
            0.0
        ],
        [
            0.025400098067595772,
            0.014209709314631003,
            0.02406474700950989,
            0.022972689320614775,
            0.01644840105212514,
            0.006075302020962348,
            0.0397488587027697,
            -0.0010441603422808587,
            0.038005426890370536,
            0.0
        ],
        [
            0.07907142983736137,
            0.12659444090443,
            0.14462871533185329,
            0.06512815728712362,
            0.15077784692122215,
            0.0997334901135489,
            -0.006136311976065428,
            0.13716701472011408,
            0.0775527201204175,
            0.0
        ],
        [
            0.020165887836664287,
            0.07598319011501836,
            0.01917724245336161,
            0.005107633463162065,
            0.057176934639869725,
            0.02675776564022042,
            0.0015582212122370043,
            0.04724188865685325,
            0.0425996982326195,
            0.0
        ],
        [
            -0.09665861252075075,
            -0.15934926362220336,
            -0.1366098942973591,
            -0.07715092007369917,
            -0.1820280168320787,
            -0.09988455724489806,
            -0.0407002011875193,
            -0.14353384607548514,
            -0.12021716780600514,
            0.0
        ],
        [
            -0.024183114650471724,
            -0.052827044616769236,
            0.006345472016965448,
            -0.018984537164447146,
            -0.04388896089423078,
            0.0010042530890825019,
            -0.0005006763324874042,
            0.022742321601385396,
            -0.043297080552331585,
            0.0
        ],
        [
            0.001825475125686024,
            0.0070397728098967605,
            -0.0396633420590477,
            0.016279124005877277,
            -0.002396232460717851,
            -0.018409589961232042,
            -0.0006692381936798386,
            -0.05933886823205825,
            0.019444649556605687,
            0.0
        ],
        [
            -0.015227061930277494,
            -0.02741611263992011,
            -0.04967030054011068,
            -0.02742729202136343,
            -0.013813486474615055,
            -0.02653974830293246,
            -0.0034152272316958776,
            -0.035043039779962315,
            -0.02523225642908164,
            0.0
        ],
        [
            0.024502129720979995,
            0.0461717944652274,
            0.04769044699956926,
            0.03570678918767639,
            0.033347036098716254,
            0.01848169018301235,
            0.03477687135710375,
            0.01655376152396476,
            0.053540946092217934,
            0.0
        ],
        [
            0.06763414879099194,
            0.09726245611911521,
            0.13192948739189503,
            0.06299414604566547,
            0.1438008723750533,
            0.08960169228147208,
            0.012977700174948703,
            0.13675953751337033,
            0.06552785996374419,
            0.0
        ],
        [
            0.0037366117054900283,
            0.061478075911290286,
            0.015606878955565118,
            0.0008629335074749056,
            0.03994637719832361,
            0.021492732778312706,
            -0.007373938406858016,
            0.032572709214078344,
            0.0366703492223166,
            0.0
        ],
        [
            -0.08469554737669184,
            -0.15370222412599932,
            -0.14191159415487592,
            -0.08182708678312384,
            -0.16184511341871632,
            -0.09847173623239397,
            -0.04242123885363226,
            -0.13693780879132073,
            -0.12251981884677629,
            0.0
        ],
        [
            -0.0046847953872783815,
            -0.0447639734379483,
            -0.019715696345140643,
            -0.008384448538843653,
            -0.04303368888403508,
            -0.017377870120995148,
            0.0009929109106394246,
            -0.018973157439005767,
            -0.028979548569954355,
            0.0
        ],
        [
            0.011788788392577604,
            0.009103638493814903,
            0.030062294973325798,
            0.0211418709331343,
            -0.0024880660590057,
            0.008097541574704548,
            -0.004426673407936191,
            0.0007385524372230667,
            0.011288339726704233,
            0.0
        ],
        [
            -0.004445534084397226,
            -0.015668324106081932,
            -0.025083667450876423,
            -0.022704480257480703,
            0.014749465025494346,
            -0.006119935491588235,
            0.015507259990875447,
            0.018667549533947947,
            -0.006794751274082744,
            0.0
        ],
        [
            0.04072759066821842,
            0.06326888409917242,
            0.12134265548891615,
            0.05781654500081629,
            0.08060911024407064,
            0.06470994904780328,
            0.05722059819501649,
            0.06743747771609027,
            0.11825011698289983,
            0.0
        ],
        [
            0.06775525636405527,
            0.13645197096891293,
            0.18415123098843572,
            0.06782190918207898,
            0.15124538905379148,
            0.11356643266368016,
            0.015913488407586662,
            0.17009626649009318,
            0.06735815152760677,
            0.0
        ],
        [
            -0.022079978259713695,
            -0.014314947973045666,
            -0.030816130421816523,
            -0.019077827273363324,
            -7.706517673988778e-05,
            -0.015388247334248817,
            -0.02837610709406027,
            0.0024703305658839714,
            0.020556190335295377,
            0.0
        ],
        [
            -0.08211979606666234,
            -0.11292152919707543,
            -0.17209814771861232,
            -0.07466707092380531,
            -0.16004634179092742,
            -0.09524954298759417,
            -0.017517863222111102,
            -0.16775327255131667,
            -0.14060334489474105,
            0.0
        ],
        [
            -0.005278517879613184,
            -0.03980581229119512,
            -0.020718048974452452,
            -0.00932901089162022,
            -0.030838330721565665,
            -0.01522859684316391,
            -0.024507169732053108,
            -0.028243263892425985,
            -0.029394200187683045,
            0.0
        ],
        [
            0.011041466051479584,
            0.005910910267409586,
            -0.009750157394214531,
            0.01599925367912866,
            -0.02361718045168304,
            -0.011184117735679483,
            0.021168526943277644,
            -0.014923852696989787,
            -0.011166395416841723,
            0.0
        ],
        [
            -0.0014148909145689503,
            -0.021780292068696028,
            -0.044965041916564474,
            -0.029642932108123216,
            -0.014891333979664245,
            -0.025195594168314323,
            -0.026381515079244966,
            -0.03354046758009474,
            -0.012051204634443313,
            0.0
        ],
        [
            0.04758936852739101,
            0.04663964078804217,
            0.023741674674442492,
            0.03472724304405625,
            0.04830585362218348,
            0.0353994922221714,
            0.028589212726971458,
            5.0934650842965334e-05,
            0.04302075837359037,
            0.0
        ],
        [
            0.016290445498638256,
            0.06308915975033691,
            0.08732893734053482,
            0.04076777759638034,
            0.09036383074371679,
            0.0503654382574214,
            0.013716297359064183,
            0.08488259562980696,
            0.04663679333862497,
            0.0
        ],
        [
            -0.044121556557236596,
            -0.10896364584097279,
            -0.12467278571191887,
            -0.07112204678498962,
            -0.1077385251359888,
            -0.08378732439647649,
            -0.06336753588383966,
            -0.08679264503641826,
            -0.06692512420188382,
            0.0
        ],
        [
            -0.015262508049222856,
            -0.019900907664148704,
            -0.038652705523708586,
            -0.0004664505445810263,
            -0.01965495111134924,
            -0.017134102704499915,
            0.0002365037441125345,
            -0.03425355269189631,
            -0.009880730484145811,
            0.0
        ],
        [
            -0.0001151998865724091,
            0.051863425321924284,
            0.0404668809437026,
            0.020873661870000254,
            0.04108016921369828,
            0.028373153942488183,
            0.00997210587148084,
            0.044593286813018884,
            0.03947144442081171,
            0.0
        ],
        [
            -0.0026820896668655614,
            0.02655866488754066,
            0.03181848305112828,
            0.01772512069407839,
            -0.016826961547430352,
            0.016849135161273093,
            0.0028127399690950072,
            -0.005653746243569485,
            -0.04476133619663286,
            0.0
        ],
        [
            -0.01538656946553163,
            -0.06259278092242293,
            -0.059403890122270486,
            -0.028488467010285234,
            -0.033279071756127876,
            0.010845933362091026,
            0.006432858197256641,
            0.03914327917282126,
            -0.014843948497212656,
            0.0
        ],
        [
            0.030403908525382384,
            0.027035523613826606,
            0.07179661353921601,
            0.02180656295916228,
            0.027223445397227375,
            -0.02281972019345932,
            0.030422171769459327,
            -0.043854734375795845,
            0.04318864037419526,
            0.0
        ],
        [
            0.08780594431414715,
            0.17192664123697077,
            0.15583684018688498,
            0.08527882081302329,
            0.18202873665654595,
            0.12605865442308764,
            0.039194010064904,
            0.163143686650028,
            0.09898884370263056,
            0.0
        ],
        [
            -0.042780511723803843,
            -0.033110056253647435,
            -0.11787169886344812,
            -0.053315297245609544,
            -0.0688739443805097,
            -0.06007665146244656,
            -0.055506793757840484,
            -0.06002648601843835,
            -0.043952902385776316,
            0.0
        ],
        [
            -0.04548623213663297,
            -0.06872374829211486,
            -0.016832897047615925,
            -0.03131049280500034,
            -0.06803082998577181,
            -0.029954208805812954,
            0.0025111391939503236,
            -0.054092599195232516,
            -0.04318774725493116,
            0.0
        ],
        [
            -0.024277637634326027,
            -0.07196115401300135,
            -0.057448888299811096,
            -0.031357137859458456,
            -0.07132777117824207,
            -0.04267989795003274,
            -0.0130948994180414,
            -0.0502215657311669,
            -0.0531906076443501,
            0.0
        ],
        [
            0.011898080592659122,
            0.018524837981005793,
            0.015929951290632516,
            0.027100776640156726,
            0.013658257495910653,
            0.01324584074420615,
            -0.00391717957589055,
            0.01688483675444405,
            0.008417184126041949,
            0.0
        ],
        [
            -0.017782136337588864,
            -0.05222335062046013,
            -0.053431193876536665,
            -0.03583506308743614,
            -0.01906775862939375,
            -0.038499801758723556,
            0.0012526737870195148,
            -0.04344725716905212,
            -0.018022759080215167,
            0.0
        ],
        [
            0.015735122968494317,
            0.011202779342230629,
            -0.0002899367109579498,
            0.027275695594374594,
            0.0020815153129261077,
            0.003615311120697018,
            0.021692470350685666,
            -0.00404930474201598,
            0.03292010488077446,
            0.0
        ],
        [
            0.06687501107691218,
            0.12158338765282717,
            0.1331058020477816,
            0.061070037549268846,
            0.13953615246266854,
            0.0954847270443537,
            0.011684210799586897,
            0.10591860642795292,
            0.0829813357340565,
            0.0
        ],
        [
            0.023855238050227157,
            0.0782912568958164,
            0.03187647039331981,
            0.011999440259346517,
            0.06943909017758998,
            0.03516774150930618,
            -0.0007648916344910606,
            0.0667243926042887,
            0.050058394051806065,
            0.0
        ],
        [
            -0.08453013215494681,
            -0.15868634478161886,
            -0.11619006593989195,
            -0.08642162464724679,
            -0.1699293670867818,
            -0.10434103761969835,
            -0.03988841556076514,
            -0.12866092802933835,
            -0.13177434533448154,
            0.0
        ],
        [
            -0.021716655540523794,
            -0.04458273585434919,
            -0.04916498227244109,
            -0.011159829279100697,
            -0.04862328446700537,
            -0.02624619739996986,
            0.008637907713717113,
            -0.027300972851831112,
            -0.031381508238318895,
            0.0
        ],
        [
            0.010116913115654796,
            0.010720449972912771,
            0.016460121276384243,
            0.02220304592205613,
            -0.0023016179909410295,
            0.011592685659101098,
            0.008017013938720674,
            0.0019355167320328215,
            0.0011876362931822204,
            0.0
        ],
        [
            -0.00614694779377449,
            -0.007970561329894266,
            -0.004978627522449375,
            -0.02275112531193882,
            0.031352682737022575,
            -0.007381689372743194,
            -0.01753422860388086,
            0.015382264554576475,
            0.0033155627699821277,
            0.0
        ],
        [
            0.041501497598525464,
            0.06663494071242376,
            0.10900791941416216,
            0.06617767101243091,
            0.07230066752042802,
            0.07036981645755538,
            0.060382331490452426,
            0.0780318850914277,
            0.10600150907356001,
            0.0
        ],
        [
            0.08854440512550879,
            0.13813170456942508,
            0.18579972828788238,
            0.07597313244863213,
            0.1751810633277251,
            0.12933578117019623,
            0.024599430137956374,
            0.16838995568685378,
            0.09169587485789565,
            0.0
        ],
        [
            0.002303997731448404,
            0.07942731708401507,
            0.012765499188177154,
            -0.0015859318515754617,
            0.04692173694742918,
            0.013381457828030963,
            -0.009122496683534237,
            0.03481383385116893,
            0.04135177256688233,
            0.0
        ],
        [
            -0.09335326192909596,
            -0.1713957651522744,
            -0.17343185658901888,
            -0.09936562725936979,
            -0.19326967557415103,
            -0.12865597907912502,
            -0.03134709616786591,
            -0.18359394896347986,
            -0.1674869159252291,
            0.0
        ],
        [
            -0.012612910658057197,
            -0.07451292367526269,
            -0.05888200404254612,
            -0.022039788231452778,
            -0.08090356515733627,
            -0.039936656178487684,
            -0.024910251143658163,
            -0.049457545968522365,
            -0.03539422596276354,
            0.0
        ],
        [
            -0.0041353805436253055,
            0.019771738022543284,
            -0.0076294774512078445,
            0.0271707442218439,
            -0.0119196547452608,
            0.0007261522336442505,
            0.010898254733076512,
            -0.014108898283502286,
            -0.007945151300718017,
            0.0
        ],
        [
            -0.00980675957488289,
            -0.056002136665871505,
            -0.04579343251930146,
            -0.03396926090911212,
            -0.00716297430370888,
            -0.036558245786497356,
            -0.01574155933385618,
            -0.026893495645087334,
            -0.020008553597874318,
            0.0
        ],
        [
            0.01482533924889673,
            0.008982078471276245,
            -0.00033135624109481565,
            0.0117195699325979,
            -0.0072130464063553945,
            0.016854285177114542,
            0.01430037900150588,
            -0.02101054347272449,
            0.04168282049006308,
            0.0
        ],
        [
            0.07986896751363198,
            0.13615057917321688,
            0.15176115842141885,
            0.0806726216852858,
            0.16839063939713333,
            0.0909115129771472,
            0.02448414659630202,
            0.1368104721642133,
            0.0685132227726084,
            0.0
        ],
        [
            -0.0018225212824405645,
            0.07341661351219725,
            0.005848437655323224,
            -0.0009095785619329666,
            0.039382709308024066,
            0.014821745591689472,
            -0.012710737703443387,
            0.03012784597361584,
            0.035125509419406065,
            0.0
        ],
        [
            -0.08229998050463458,
            -0.15465250637787176,
            -0.13105967725902112,
            -0.08048604146745342,
            -0.16390251941997813,
            -0.10139351188644255,
            -0.03314051866032444,
            -0.13594458309988283,
            -0.12612129671394084,
            0.0
        ],
        [
            -0.022718008400730225,
            -0.06687823280933247,
            -0.052403989529142825,
            -0.022214707185670618,
            -0.06353563697768505,
            -0.03219961571268459,
            -0.015196473143830255,
            -0.04225029287424234,
            -0.042788405210139074,
            0.0
        ],
        [
            0.006536855102173458,
            0.02752133314211147,
            0.024752311209781663,
            0.02610956923292207,
            0.0016106415882020109,
            0.005460733463882789,
            0.011473887728219542,
            0.0032088830031070104,
            0.01822691622909378,
            0.0
        ],
        [
            -0.017790997867325187,
            -0.03540433305854224,
            -0.06014944166473374,
            -0.03548522517900041,
            -0.02135103771832131,
            -0.02841778741311407,
            -0.0048406696868580484,
            -0.02556919472317018,
            -0.022701004026128624,
            0.0
        ],
        [
            0.03514187309107883,
            0.03664604625611151,
            0.07853971304549517,
            0.04634186160412343,
            0.05134800525169647,
            0.042188929773147976,
            0.03375394952550127,
            0.04207202159629195,
            0.07143651832435718,
            0.0
        ],
        [
            0.07556817174826166,
            0.15577644058642892,
            0.17762351303886814,
            0.08359959885253168,
            0.16746297248354208,
            0.1276019425035751,
            0.02065182322914641,
            0.14832170325472419,
            0.08223430704253898,
            0.0023930510643021072
        ],
        [
            0.019028658187167313,
            0.09023167561115653,
            0.026624473971967322,
            0.0048044406091843905,
            0.06933547769591608,
            0.03049667714111226,
            0.0012554635914232282,
            0.04864259155503492,
            0.04238073123829167,
            -0.0007577995036956674
        ],
        [
            -0.10528383479745498,
            -0.1816319627092059,
            -0.18407667583418946,
            -0.09784966298948153,
            -0.2014335015785655,
            -0.12737534180655138,
            -0.047898492160617645,
            -0.15687872459634292,
            -0.1559767945121263,
            -0.001445801684682523
        ],
        [
            -0.013404540647836902,
            -0.0703459420107283,
            -0.03721130587494614,
            -0.01941600391818457,
            -0.05222439827173442,
            -0.029538774194602768,
            0.01111571597521907,
            -0.04316711658941577,
            -0.021351872787030796,
            0.00017449330677202866
        ],
        [
            0.012810818155502127,
            0.023785949116486182,
            0.04088107624507109,
            0.035391935070084174,
            -0.01481897424326567,
            0.021144248373041324,
            -0.014269115748088673,
            0.010441603422808532,
            0.010424813855642173,
            9.971046101258773e-06
        ],
        [
            -0.02578409768950382,
            -0.041227703310894426,
            -0.0745303025282481,
            -0.0420855003848217,
            -0.018651421224038123,
            -0.04126707693752865,
            0.004664349165735854,
            -0.036622013956094324,
            -0.025813989599974774,
            0.00014458016846825226
        ],
        [
            0.03451861216628957,
            -0.0021442506339307,
            0.020486099605686037,
            0.03656972269515124,
            0.015650721661805422,
            0.013764275672245307,
            0.016810161821244868,
            0.012020577598940568,
            0.044086795387223904,
            0.000638146950480562
        ],
        [
            0.07660201688416801,
            0.14393800083896363,
            0.17088041353258893,
            0.07613639013923551,
            0.1710660796113498,
            0.10800784889880985,
            0.013207774481365814,
            0.11684408903376967,
            0.08077415056435439,
            0.0010818585019865775
        ],
        [
            -0.0015448600173686156,
            0.0492356554376055,
            -0.022366546273899113,
            -0.012675793548988956,
            0.023292226410895456,
            0.00956186274562315,
            -0.01106108947779788,
            0.029363826210971333,
            0.021514076126528114,
            -0.0006381469504805619
        ],
        [
            -0.07516349522363547,
            -0.14063620234256619,
            -0.11836044931906292,
            -0.06952445366979967,
            -0.16780186591140045,
            -0.09619886257436794,
            -0.020853373596469077,
            -0.12155554423674428,
            -0.12145028467912189,
            -0.001136699255543501
        ],
        [
            -0.020895487118289632,
            -0.06277436477114012,
            -0.05730806189734583,
            -0.010285234508011304,
            -0.053440579280113726,
            -0.027684768491681194,
            -0.028882793486913,
            -0.0337696735088881,
            -0.040974242434471786,
            7.47828457594408e-05
        ],
        [
            0.017401090558926233,
            0.04079108979912088,
            0.04016866032671729,
            0.07182172260186115,
            0.0014840197937991406,
            0.027641851693002456,
            -0.0030387025179761107,
            0.015153058625783145,
            0.007710048629032462,
            1.495656915188816e-05
        ],
        [
            0.018328597337996466,
            0.002655001841842919,
            -0.0051857251731336484,
            0.020383888798190142,
            0.03127482815736268,
            0.019082525364514685,
            0.014976580767552192,
            0.01624815361890694,
            -0.0019917692296529954,
            0.0005085233511641977
        ],
        [
            0.020198380112364217,
            -0.0010889184186797518,
            -0.0052519964213526005,
            -0.019999067098910805,
            0.011582030488824668,
            -0.007239205601129756,
            -0.005704557473188279,
            0.021265216726939318,
            0.04634980428738511,
            0.0006082338121767856
        ],
        [
            0.04436081786011781,
            0.09224472397104133,
            0.17066503197587723,
            -0.011159829279100697,
            0.15185147026551427,
            0.07965014500384598,
            0.04730154331524575,
            0.13449294555085828,
            0.07768524156056567,
            0.0019593105588973504
        ],
        [
            0.0008979683466157629,
            0.07157643531066271,
            0.009418801153119771,
            0.00391818457448051,
            0.044262748293937004,
            0.015793381913776106,
            0.0022234355249146076,
            0.010008658890643285,
            0.021571661788902408,
            -0.001889513236188539
        ],
        [
            -0.05074111927028255,
            -0.04924784647704766,
            -0.007372676364359343,
            -0.01710707372250858,
            -0.055201299461745734,
            -0.013968559633956101,
            0.0248981349588131,
            -0.025212652167269367,
            -0.03376815837952202,
            -0.001420874069429376
        ],
        [
            -0.0177289671591708,
            -0.07045044815198631,
            -0.04622419563272473,
            -0.025526506052195808,
            -0.07300438351121169,
            -0.03950062150391176,
            -0.02933822721667592,
            -0.042886976009779476,
            -0.023771798681641976,
            -9.971046101258773e-06
        ],
        [
            0.0042151343112523665,
            0.006057759099275695,
            -0.011879121243248636,
            0.012279310586095105,
            -0.023418060725573453,
            -0.006921621290907065,
            0.0008067472380241247,
            -0.027402842153517015,
            -0.021570539450494364,
            0.00011965255321510533
        ],
        [
            -0.02745597296642663,
            -0.058640538099728357,
            -0.0861940422147851,
            -0.04476759101616251,
            -0.04246727370947595,
            -0.05163920884220638,
            -0.016970850597568393,
            -0.035323180359598666,
            -0.022209585212008914,
            0.0002542616755820989
        ],
        [
            0.024824098634733643,
            -0.0008409995108371593,
            0.004622419563272473,
            0.023975557991463947,
            0.031751024668068506,
            0.004375796793284287,
            0.04191149966533583,
            0.041053328579432585,
            0.04218955123454052,
            0.0007577995036956674
        ],
        [
            0.09185861724689998,
            0.14775547520272947,
            0.18420093442459995,
            0.08631667327471604,
            0.16309306100890136,
            0.1316258215476937,
            0.022467272518009646,
            0.128431722100545,
            0.07438443915307835,
            0.0013610477928218232
        ],
        [
            0.00013883063253594674,
            0.08864614103678536,
            0.0021952350972530565,
            0.0031602024395363526,
            0.06022217711871708,
            0.01631696685765671,
            -0.01843153931922578,
            0.04940661131767943,
            0.05209440280509264,
            -0.0011317137324928714
        ],
        [
            -0.09935251756059807,
            -0.1864942442984246,
            -0.15258954902415595,
            -0.09948223989551508,
            -0.20022487577361386,
            -0.11756799497248582,
            -0.056801428021154676,
            -0.18086894514338103,
            -0.15320627540796078,
            -0.001331134654518047
        ],
        [
            -0.01294669494479267,
            -0.054390533861439105,
            -0.05787965141323437,
            -0.02327588217459242,
            -0.0542769976588533,
            -0.03447592271460492,
            0.01814950453511771,
            -0.042937910660622414,
            -0.02961268624522914,
            -8.475389186069962e-05
        ],
        [
            0.004368734160015597,
            0.013005151747556065,
            0.015333510056661948,
            0.03141544417753106,
            -0.01162568076815168,
            -0.0005390349914049797,
            -0.0169536366465384,
            0.0033362196302144376,
            0.006353660652866189,
            0.00018446435287328746
        ],
        [
            -0.004244672743706851,
            -0.032657729395088986,
            -0.041088173895755364,
            -0.032348345266693085,
            -0.005099901058478462,
            0.009127544742994292,
            0.0032543012517125824,
            -0.04023837416594511,
            -0.027791361189548475,
            0.00019942092202517557
        ],
        [
            0.021849578486568877,
            0.002448194892035349,
            0.02478544683389111,
            0.021596660214100782,
            0.01673828782744541,
            -0.024750976134002567,
            0.0257908699362214,
            0.018642082208526478,
            0.06355080896054568,
            0.0008674810108095139
        ],
        [
            0.0701626386090943,
            0.1362235507642921,
            0.13623711852612747,
            0.07689437227417964,
            0.15031899350955985,
            0.10840783346249566,
            0.002364216977310374,
            0.15020628533591404,
            0.05813816663686297,
            0.0012862649470623824
        ],
        [
            0.007889715308588008,
            0.07557564698646274,
            0.021803240664037882,
            0.004699489236653698,
            0.057918188652393066,
            0.030369643417023195,
            0.0023284915361542202,
            0.03025518260072324,
            0.044610666230639306,
            -0.001126728209442242
        ],
        [
            -0.08639696108606909,
            -0.13185518502482269,
            -0.12073793034891811,
            -0.07862023928912937,
            -0.15308087207283683,
            -0.10081327676830601,
            -0.02821151623574475,
            -0.13597005042530436,
            -0.10568009197065789,
            -0.0013111925623155295
        ],
        [
            -0.004764549154905456,
            -0.03526829107022822,
            0.007057887935319251,
            -0.00580730928003359,
            -0.025159170155033606,
            -0.003757794892310401,
            0.010517769530873022,
            0.0014771048744461335,
            -0.0012115771169848022,
            -0.00011965255321510533
        ],
        [
            -0.005461656160830858,
            0.005916097111377749,
            -0.025083667450876423,
            0.02088532313361474,
            -0.022008633222990015,
            0.008849443887556069,
            0.0008768056717845252,
            -0.011434829114246425,
            -0.021768014775502165,
            0.00016452226067076986
        ],
        [
            -0.02092207170749863,
            -0.05122054327882569,
            -0.060663043838430686,
            -0.043986286353989296,
            -0.019536812187287644,
            -0.04031775735075496,
            -0.016140476993288938,
            -0.058116436611827055,
            -0.025167346785920114,
            1.9942092202517546e-05
        ],
        [
            0.028853140821522905,
            0.01671656372234248,
            0.04035090625931942,
            0.027124099167385757,
            0.028264512275995024,
            -0.001254887193366333,
            0.028745686150119992,
            0.013599551775072605,
            0.046053661919510824,
            0.0011317137324928716
        ],
        [
            0.07381949654695724,
            0.12503825867510332,
            0.14462871533185323,
            0.08393777549735287,
            0.14898615093441525,
            0.11468226942932738,
            0.016828619077396384,
            0.14378851932969997,
            0.0696688416259211,
            0.0010170467023283957
        ],
        [
            0.003996549911089331,
            0.09232787644825186,
            0.026732164750323084,
            0.011288103178860476,
            0.0761364785129306,
            0.0290615393932952,
            -0.0036269235160488744,
            0.05592624662557938,
            0.045516332078682886,
            -0.0013161780853661591
        ],
        [
            -0.08857689740120872,
            -0.16737790119909662,
            -0.1379353192617383,
            -0.09402476852391725,
            -0.18340340975630026,
            -0.11166092680234416,
            -0.03823441005513192,
            -0.1548413385626241,
            -0.1269772907620743,
            -0.0009572204257208429
        ],
        [
            -0.013312971507228072,
            -0.03718861494868814,
            -0.020651777726233445,
            -0.014879772372134226,
            -0.046544378929886165,
            -0.02033226254203957,
            -0.0004956720761717659,
            -0.028905414353384618,
            -0.01539457819808851,
            -6.481179965818208e-05
        ],
        [
            0.011776973019595821,
            0.0021108557192842103,
            0.00658570529175917,
            0.022937705529771202,
            -0.011194472462421279,
            -0.001781905481141266,
            0.01179855709943245,
            -0.006214027402842159,
            -0.009921743911404074,
            0.00033901556744279855
        ],
        [
            -0.01434386279988896,
            -0.04001739670536192,
            -0.060663043838430686,
            -0.03325792382862608,
            -0.021540369411443883,
            -0.02917998975764849,
            -0.018312686998343347,
            -0.03983089695920136,
            -0.014524346059216875,
            3.4898661354405705e-05
        ],
        [
            0.027972895534379802,
            0.022839730184185225,
            0.011655455780509583,
            0.021608321477715325,
            0.023249231322941877,
            0.014885262453733977,
            0.03782467979441426,
            -0.004253043345387869,
            0.04923691370067046,
            0.000678031134885597
        ],
        [
            0.07929296808076988,
            0.12416820639690795,
            0.1624971006328904,
            0.07120367563029129,
            0.1453044335486282,
            0.10738469698199457,
            -0.006304349158542666,
            0.13454388020170122,
            0.06278455300562052,
            0.0012862649470623828
        ],
        [
            0.012754695133838645,
            0.08657967987750065,
            0.01737135093939496,
            0.019299391282039335,
            0.05691967294692907,
            0.03063057755298987,
            0.008302084320853997,
            0.06191106809962821,
            0.05718345965625915,
            -0.0008026692111513319
        ],
        [
            -0.10163583838932835,
            -0.16110477362609033,
            -0.12986679479107988,
            -0.09346502787042002,
            -0.17336886436357185,
            -0.09427447332161326,
            -0.033277887579823584,
            -0.13772729587938676,
            -0.14493095014641916,
            -0.0011666123938472773
        ],
        [
            -0.005839748096248043,
            -0.05159843070210396,
            -0.018158322011995076,
            0.001725867014949728,
            -0.014257778895062578,
            -0.024956976767660538,
            0.01546769509047316,
            -0.012784597361585104,
            0.0016456389385721137,
            0.0008824375799614021
        ],
        [
            0.08374440985165799,
            0.16680608791001555,
            0.22948904867623182,
            0.10126641322853747,
            0.19709916921404175,
            0.1525091357847683,
            0.03668543502703317,
            0.19362807517954467,
            0.1350887629471355,
            0.0010469598406321716
        ],
        [
            -0.07043439218767539,
            -0.12001198845489502,
            -0.17369694158189475,
            -0.09627539240152064,
            -0.16414992542467416,
            -0.11920226666617223,
            -0.023318509232546025,
            -0.16016400957571436,
            -0.1046427364858954,
            -0.002083948635163085
        ],
        [
            0.016511983742046793,
            0.003124167300747216,
            0.005243712515325238,
            0.02472187886279356,
            0.020662533857678744,
            0.013772859031981055,
            0.023495452613372297,
            -0.011816838995568707,
            0.038097639360177904,
            0.0007877126419994436
        ],
        [
            0.07589014066201535,
            0.1430469428910029,
            0.17023426886245413,
            0.07193833523800641,
            0.17158726412097447,
            0.10817608274963053,
            0.0021780095676187106,
            0.15647124738959914,
            0.05834227899474159,
            0.0010918295480878365
        ],
        [
            0.027116280993200237,
            0.14793718895490227,
            0.045047880976838095,
            0.029199804090771275,
            0.10256392855192686,
            0.05434296715896697,
            0.00573798154811439,
            0.05834564254062041,
            0.06794865430480507,
            -0.0008076547342019613
        ],
        [
            -0.11150758251561105,
            -0.26682412021720714,
            -0.20410716060837003,
            -0.11440865732210745,
            -0.2526352751079136,
            -0.15415542418208478,
            -0.03605231465731609,
            -0.19398461773544545,
            -0.1541511412771733,
            -0.0010718874558853187
        ],
        [
            -0.023707545887954817,
            -0.03321140775108694,
            -0.057597998608303835,
            -0.019555939081558865,
            -0.06583014498487377,
            -0.043529650563871786,
            -0.021024062487905282,
            -0.040671318698110304,
            -0.03509629939335587,
            -0.00014458016846825232
        ],
        [
            0.00905648339053941,
            0.0019262454010399166,
            0.040839656714934225,
            0.028523450801128808,
            -0.009193113518997209,
            0.005888184778723049,
            -0.0053421870220914935,
            0.00040747720674375043,
            -0.0014412327041276318,
            0.0001894498759239168
        ],
        [
            -0.013883063253599254,
            -0.021527811842011024,
            -0.05567613240995389,
            -0.027124099167385785,
            0.010347991514588262,
            -0.01801818875728195,
            0.0009766839042318065,
            -0.02381194926908778,
            0.009003312399500057,
            0.0002991313830377634
        ],
        [
            0.020419918355772698,
            0.003520318371763864,
            0.00342953709533117,
            0.038575460036849585,
            0.0013746380701286087,
            0.009288911906026376,
            0.03434183620610998,
            -0.009906789588957354,
            0.04346056623732966,
            0.0015355410995938523
        ],
        [
            0.10569737285181749,
            0.16449268168651454,
            0.14381689254117103,
            0.11856006716887843,
            0.21218285739405007,
            0.1252689853273988,
            0.01797508156454719,
            0.12779503896500788,
            0.09353056825327252,
            0.003958505302199735
        ],
        [
            -0.050708626994582645,
            -0.051421298802597604,
            -0.11749892309221643,
            -0.1148634466030739,
            -0.08312550805835933,
            -0.08003467952000753,
            -0.05860742005074933,
            -0.04380379972495285,
            -0.06952169893400767,
            -0.0016202949914545517
        ],
        [
            -0.032477506483685914,
            -0.04404503021975642,
            0.01859736903144571,
            -0.03349114910091658,
            -0.08333685332992663,
            -0.025671112297674714,
            0.006436810690602854,
            -0.03519584373249124,
            -0.06605333595913113,
            -0.0044720141764145625
        ],
        [
            -0.030888338817635613,
            -0.060994471413110374,
            -0.035256304052486864,
            -0.01528791659864262,
            -0.05062759709473896,
            -0.030858894921960783,
            0.0018396008324363666,
            -0.030560790505781088,
            -0.02759077457228179,
            0.0003390155674427985
        ],
        [
            0.003978826851616629,
            0.019948523570473498,
            0.016294443155836835,
            0.02581803764255894,
            -0.0030869686014353137,
            0.01652811750715613,
            0.0059945678443772965,
            0.026969897621351824,
            0.01591650613746992,
            -0.00020440644507580495
        ],
        [
            -0.008707929887576737,
            -0.02573731213960434,
            -0.02762682660127902,
            -0.0186813443104695,
            -0.0021269851409135287,
            -0.01899840843910436,
            0.004331045675778411,
            -0.033056588397086556,
            -0.004841432955006886,
            0.00024429062948084015
        ],
        [
            0.021896839978496035,
            -0.017548097356414105,
            0.013701580569270011,
            0.013282179256944304,
            0.012754115036604174,
            0.006876987820281205,
            0.017745182486352734,
            0.002190189986247648,
            0.04687392840479404,
            0.0008126402572525904
        ],
        [
            0.08586822314513412,
            0.163063095886415,
            0.1625550879750821,
            0.07396739510693379,
            0.14664095080020378,
            0.11031848933967314,
            0.014452330981924416,
            0.14096164620791526,
            0.05247710804889705,
            0.0010270177484296543
        ],
        [
            0.01712342929385427,
            0.10471013961301912,
            0.03061731667715961,
            0.01788837838468177,
            0.0831676122948492,
            0.038171917416818024,
            -0.008967228916631959,
            0.04362552844700246,
            0.04545906578964187,
            -0.0006929877040374852
        ],
        [
            -0.11201859739707337,
            -0.20742063037518038,
            -0.1516948871732,
            -0.097593115189962,
            -0.1994601659923464,
            -0.12239012647202901,
            -0.03354638217860778,
            -0.15158152090867416,
            -0.12316508652906866,
            -0.0012413952396067179
        ],
        [
            -0.02551234411092272,
            -0.06154497186803204,
            -0.05928791543788725,
            -0.01176621498705599,
            -0.05601587460218199,
            -0.01974687740806158,
            0.01259821141706055,
            5.093465084299309e-05,
            -0.037019797228767526,
            -0.00013460912236699354
        ],
        [
            0.014320232053925366,
            0.009378640434920538,
            0.00542595844792737,
            0.0146815308906873,
            -0.011866938249294856,
            -0.01708431921803258,
            -0.021741139552150526,
            -0.04635053226710131,
            -0.004922294328021576,
            0.00035397213659468666
        ],
        [
            0.0012406141630876,
            -0.03298272536195418,
            -0.029987739819079484,
            -0.019381020127340998,
            0.015372579564471855,
            -0.01610924955205162,
            0.012421835813464413,
            -0.0208322721947741,
            0.009785884866576194,
            0.0007877126419994437
        ],
        [
            0.050735211583791684,
            0.0968066929791297,
            0.09963882169720667,
            0.06881311658931363,
            0.10375723645100438,
            0.07245385620139497,
            0.046055640141359294,
            0.10278612540111037,
            0.09309137320456823,
            0.002238499849732596
        ],
        [
            0.014781031600215017,
            0.023453841313679558,
            0.029117929686205635,
            -0.005457471371597827,
            0.031026701297916348,
            0.01926964260675401,
            -0.0022582849824110685,
            0.008276880761982353,
            -0.01721608557625537,
            -0.0009821480409739898
        ],
        [
            0.008572053098286181,
            0.12243772528736457,
            0.02576294774512078,
            0.009620542481983352,
            0.06930295495499206,
            0.04077954210453816,
            -0.018639893574849242,
            0.03756430499668928,
            0.02768063293973888,
            -0.0015654542378976284
        ],
        [
            -0.06701384170944816,
            -0.1601718469946401,
            -0.11332383445442196,
            -0.06360053175362082,
            -0.1754990777249013,
            -0.09820221873669147,
            -0.027305171469829304,
            -0.11304945754596854,
            -0.08611633943740701,
            -0.0008924086260626608
        ],
        [
            -0.017959366932315618,
            -0.03163075720081471,
            -0.01235958779283608,
            0.0009912074072346289,
            -0.015197706315051684,
            -0.00988974708752871,
            0.024681602613445153,
            -0.010161462843172209,
            -0.01737050638223983,
            0.0002592471986327282
        ],
        [
            0.009301652379911485,
            0.004685516056363415,
            -0.0003976274893137677,
            0.008489399911374401,
            -0.009784392653257201,
            -0.00040170123563298965,
            -0.02012074350541518,
            -0.006774308562114806,
            -0.0027152247863888868,
            -0.0002293340603289519
        ],
        [
            0.00262301280195662,
            0.006176941737274344,
            -0.011655455780509638,
            -0.02001072836252535,
            0.05661110363583477,
            -0.006552536822269944,
            -0.0037108547555986804,
            0.0005348138338511776,
            0.01220473582296383,
            0.00016452226067076986
        ],
        [
            0.004415995651942756,
            -0.025595260441339474,
            0.041204148580138544,
            0.02227301350374325,
            -0.030683204771172423,
            0.013166873834637244,
            0.04292200139189717,
            0.02643508378750062,
            0.04392916782487183,
            0.000922321764366437
        ],
        [
            0.1078950322264298,
            0.18505700413713633,
            0.24893137612246924,
            0.10735359283531964,
            0.21511013211320346,
            0.1888939977046036,
            0.07110795746154605,
            0.20493556766668364,
            0.13942076456019556,
            0.0011217426863916126
        ],
        [
            0.03942789964022192,
            0.15460765661541354,
            0.07179661353921607,
            0.026354455768827112,
            0.13192332220971004,
            0.0636215790333104,
            -0.029990907139331918,
            0.07566342382722968,
            0.06531065700698913,
            -0.0009322928104676957
        ],
        [
            -0.11494880989655643,
            -0.2298192713223745,
            -0.20399946983001432,
            -0.1024908459080626,
            -0.23316553455724104,
            -0.1590565225911968,
            -0.046457679674574204,
            -0.172872204961035,
            -0.15683340966059983,
            -0.001201511055201683
        ],
        [
            -0.024197883866698966,
            -0.06044850889008607,
            -0.0667931342986845,
            -0.022471254985190203,
            -0.09485953978627126,
            -0.04147479424313377,
            -0.011948855993313828,
            -0.05304843885295163,
            -0.04982420619681338,
            2.991313830377632e-05
        ],
        [
            -0.00405858061924369,
            -0.006192656164786814,
            -0.004854368932038833,
            0.010600088625603465,
            -0.015867252829071532,
            -0.010638216056485905,
            -0.00967765059744538,
            -0.02149442265573273,
            -0.011139296335459903,
            -2.4927615253146932e-05
        ],
        [
            -0.019477642360475222,
            -0.05322429846221299,
            -0.06233639285595943,
            -0.0415840660493971,
            -0.030015856057085955,
            -0.03137904652194709,
            -0.010844748245958657,
            -0.013319411195436254,
            -0.024190024653208936,
            0.0003489866135440573
        ],
        [
            0.03546679584807794,
            0.038623345228234685,
            0.024338115908413116,
            0.03669799659491102,
            0.048170750193779144,
            0.002753541803227927,
            0.038332110277399245,
            -0.04286150868435795,
            0.06263214520833679,
            0.00163525156060644
        ],
        [
            0.053538408823720546,
            0.0967111557960938,
            0.11811193213824184,
            0.05112297968607876,
            0.10838846137863556,
            0.09886313743634406,
            -0.008034841372225543,
            0.1246880252635868,
            0.028524269569830007,
            0.00025426167558209893
        ],
        [
            0.03672513307063821,
            0.1283483748832807,
            0.05816130421816501,
            0.03002775380740258,
            0.0894838659381878,
            0.04963585267988285,
            0.0034076600614336983,
            0.05251362501910051,
            0.06600296505799802,
            -0.0009073651952145492
        ],
        [
            -0.09498969108707339,
            -0.1887504343179383,
            -0.1676662579939694,
            -0.09833943606129159,
            -0.1979028930693198,
            -0.1321888899463588,
            -0.037982921944929776,
            -0.14867824581062497,
            -0.13451969175935183,
            -0.001316178085366159
        ],
        [
            -0.03731294787648211,
            -0.07774561850460915,
            -0.08206037310712744,
            -0.022319658558201366,
            -0.07835124480522676,
            -0.04957405248978544,
            -0.010668103003286938,
            -0.05666479906280242,
            -0.06080157315714457,
            -6.979732270881147e-05
        ],
        [
            0.021571917221496914,
            0.040716736389756314,
            0.04284436197355773,
            0.0314271054411456,
            0.016303852468953273,
            0.02358020586604656,
            0.011330116085631198,
            0.027199103550145154,
            0.022854052515523526,
            5.982627660755269e-05
        ],
        [
            -0.008725652947049412,
            -0.0581624453986867,
            -0.05047383942476552,
            -0.025864682697017055,
            -0.010431204253283421,
            -0.03274380071993099,
            -0.003110597961427125,
            -0.036698415932358786,
            -0.015570239527944674,
            0.0005533930586198623
        ],
        [
            0.01292601804207455,
            0.019115498402648146,
            0.040002982206169824,
            0.04089605149614012,
            0.046974315934942446,
            0.02491234329703465,
            0.032775918449339,
            0.008862629246676523,
            0.07048881093882661,
            0.0016153094684039223
        ],
        [
            0.09796125739199271,
            0.1641549971132275,
            0.1663905364657543,
            0.10764512442568278,
            0.1714849573514306,
            0.13056148494046096,
            0.02091680065845261,
            0.13999388784189884,
            0.11719758522248408,
            0.0028467336619093816
        ],
        [
            -0.02498656001323321,
            6.847533203335754e-05,
            -0.07220252493455709,
            -0.07557664948573828,
            -0.018901745677361304,
            -0.03956757170985059,
            -0.037246739038680615,
            -0.015076656649518683,
            -0.0516780105409011,
            -0.000752813980645038
        ],
        [
            -0.04787884516544477,
            -0.0723144215973267,
            -0.015424633022963041,
            -0.04273853114723511,
            -0.10669206657964214,
            -0.04555017344566681,
            0.0034864663390845596,
            -0.04472062344012631,
            -0.08147869642289693,
            -0.004312477438794422
        ],
        [
            -0.03170064571013345,
            -0.06686539419792176,
            -0.0622535537956857,
            -0.016045898733586778,
            -0.06310511566473348,
            -0.032834784333129946,
            -0.013402842681573796,
            -0.03995823358630876,
            -0.025782405376276407,
            1.495656915188816e-05
        ],
        [
            -0.000425353427344316,
            -0.00806542651651826,
            -0.009866132078597711,
            0.006950113114257056,
            -0.02184814897619053,
            -0.006147402242742628,
            0.024823196840677797,
            -0.01449090816482454,
            -0.005538085733010623,
            0.00010469598406321722
        ],
        [
            -0.011127127505597523,
            -0.027232065813038275,
            -0.010446005500513611,
            -0.026331133241598054,
            0.007305291087604637,
            -0.018474823495223724,
            -0.029934809973971493,
            -0.016095349666378017,
            -0.009280730573041157,
            0.00024927615253146943
        ],
        [
            0.017779182494343376,
            0.004431999195779579,
            0.006618840915868673,
            0.020628775334095184,
            0.014454253884424895,
            0.008698376756206883,
            0.02839490631291683,
            0.011180155860031571,
            0.04909894659500963,
            0.0008525244416576257
        ],
        [
            0.07959426009180545,
            0.12340078238772012,
            0.12458994665164519,
            0.06642255754833593,
            0.11111414472249498,
            0.09272431855333721,
            0.000563403365069326,
            0.11788824937605052,
            0.047056001439266415,
            0.0011815689629991655
        ],
        [
            0.026289204884475198,
            0.12219026179812592,
            0.04846913416614207,
            0.01466986962707284,
            0.1025111777131904,
            0.05509830281571276,
            0.01378489505320174,
            0.06242041460805786,
            0.07634077597815159,
            -0.0013062070392649001
        ],
        [
            -0.10489688133230146,
            -0.1785562359963886,
            -0.1497233175386859,
            -0.0827716491359004,
            -0.17924893061764435,
            -0.119761901720943,
            -0.036624011315588956,
            -0.12718382315489227,
            -0.14220833342600897,
            -0.0010669019328346896
        ],
        [
            -0.01230866480377621,
            -0.05455988452233823,
            -0.03596871997084067,
            -0.009445623527765457,
            -0.046264485213891926,
            -0.023600805929412355,
            -0.0074407340372289466,
            -0.033515000254673244,
            -0.03053940667842009,
            -5.4840753556923306e-05
        ],
        [
            -0.006985839275481326,
            0.0026883109467191746,
            0.004995195334504154,
            0.006670242787508468,
            -0.025042713820664142,
            -0.005004098725941014,
            0.005998240822816053,
            -0.01013599551775074,
            -0.0005679313953048937,
            0.0002243485372783225
        ],
        [
            -0.010187805353545507,
            -0.045536241484314566,
            -0.04588455548560261,
            -0.030354269188609284,
            -0.00837235564960892,
            -0.028572287888357556,
            -0.01841351848911675,
            -0.013803290378444466,
            -0.018408414615864593,
            0.00012463807626573477
        ],
        [
            0.027352588452836016,
            0.04424053556892377,
            0.05651280691871835,
            0.039648296289385904,
            0.035394552755818376,
            0.03454287292054378,
            0.04219924432475945,
            0.02712270157388072,
            0.06773122366237422,
            0.0009572204257208429
        ],
        [
            0.09094292584081146,
            0.15152628547856872,
            0.2046041949700123,
            0.08050936399468245,
            0.16562992677091082,
            0.14723036954728333,
            0.02956928369162662,
            0.18336474303468653,
            0.08094885059283669,
            0.0012214531474042006
        ],
        [
            0.0025668897802931523,
            0.08076573443426582,
            0.018299148414460342,
            0.012279310586095105,
            0.06444994386674174,
            0.03302533491926357,
            -0.017166269551633778,
            0.04011103753883766,
            0.04586884427474691,
            -0.0012812794240117532
        ],
        [
            -0.06734171830969274,
            -0.10703979965516996,
            -0.05582524271844663,
            -0.05511113184224639,
            -0.12506647833091383,
            -0.06337952828876237,
            -0.010448122444315533,
            -0.072734681403759,
            -0.08206610644677864,
            -0.0012812794240117532
        ],
        [
            -0.022404901016712858,
            -0.06540757871259217,
            -0.05545246694721495,
            -0.013853581174056023,
            -0.058653159311647274,
            -0.04290649864705648,
            -0.0060041123241235395,
            -0.036392808027300994,
            -0.03254298425299906,
            0.00012463807626573472
        ],
        [
            -0.00910965256895746,
            -0.009995606198256068,
            -0.02892739984757614,
            -0.0019707535508547702,
            -0.03311930953173292,
            -0.012768605942898581,
            0.007170413747909554,
            -0.039932766260887265,
            -0.00823550400270709,
            0.00025924719863272826
        ],
        [
            -0.008007869038405863,
            -0.0440440584295127,
            -0.05363000762119352,
            -0.03677962544021271,
            -0.018982691587154543,
            -0.042061896049058856,
            -0.020656618457226855,
            -0.04609585901288646,
            -0.026108391596037117,
            8.475389186069968e-05
        ],
        [
            0.012583372225602713,
            0.027487355066860508,
            0.009998674575035615,
            0.023812300300860595,
            0.018695345627358306,
            0.007421172827527606,
            0.03287161431511426,
            -0.003769164162379657,
            0.04662791252155388,
            0.0007179153192906322
        ],
        [
            0.06870344004584367,
            0.08347842464997757,
            0.1355164187017463,
            0.06162977820276608,
            0.1120601843313857,
            0.10126304481845919,
            -0.0020240648210333445,
            0.13892426017419648,
            0.049607417070446636,
            0.0013311346545180468
        ],
        [
            0.0036657194675992766,
            0.0777660661731081,
            0.009775009112296562,
            0.004233038692072644,
            0.05652229343768039,
            0.026349197716798833,
            0.009578245486447673,
            0.025823867977385007,
            0.03910387057011022,
            -0.0007428429345437788
        ],
        [
            -0.07347094304399454,
            -0.13459960548886818,
            -0.12632128301136553,
            -0.06588613942206775,
            -0.14464302544696256,
            -0.09911033819673365,
            -0.04086362992547429,
            -0.10184383436051542,
            -0.10890875612675477,
            -0.00163525156060644
        ],
        [
            -0.015351123346586226,
            -0.0641144243950279,
            -0.05655422644885516,
            -0.017456911630944344,
            -0.05686527468549751,
            -0.04337000007278685,
            0.006366141914689594,
            -0.05195334385982786,
            -0.0385572922003026,
            0.00010469598406321717
        ],
        [
            -0.003066089288773638,
            0.006259423298800526,
            -0.009460220683256582,
            0.009049140564871605,
            -0.016548887929580813,
            -0.0003793845003200458,
            -0.0071928681879518674,
            -0.030076911322772876,
            -0.0029633692835114855,
            -4.9855230506293865e-05
        ],
        [
            -0.0067406702861092654,
            -0.03659933677762628,
            -0.03181019914510086,
            -0.03293140844741935,
            -0.011400837688855192,
            -0.029873525224296926,
            -0.012054848581558641,
            -0.006290429379106621,
            -0.016706035422726806,
            2.991313830377632e-05
        ],
        [
            0.013750140307554184,
            0.013714865119886788,
            0.012566685443520298,
            0.0206754203885533,
            0.02354014858743031,
            0.01256260530924061,
            0.02994319081130703,
            -0.03792084755259001,
            0.052641669908048166,
            0.0014158885463787466
        ],
        [
            0.07343549692504917,
            0.10033012427862742,
            0.12487988336260314,
            0.06491825454206215,
            0.10075169387129229,
            0.09340068730051412,
            0.012714849784633664,
            0.11422095451535677,
            0.04305451872579347,
            0.0009771625179233606
        ],
        [
            -0.0045341493817606104,
            0.06287113247060339,
            0.007223566055866659,
            0.004268022482916245,
            0.03099929631663484,
            0.016564167618046244,
            -0.024478261991366435,
            0.03076452910915295,
            0.040264016701779703,
            -0.0009971046101258782
        ],
        [
            -0.057939635259436045,
            -0.09753402221108476,
            -0.08061068955233769,
            -0.05039998134197818,
            -0.0747012608261291,
            -0.06122853833898395,
            -0.012630208631103118,
            -0.08658890643304637,
            -0.08693189098904028,
            -0.001395946454176229
        ],
        [
            -0.00967974431532867,
            -0.025904046359021937,
            -0.006966764969018213,
            -0.0033701051845978214,
            -0.037969779048918184,
            -0.01091460023997698,
            0.004013025704765305,
            0.0007130851118015424,
            -0.00799978155816125,
            -0.00013959464541762288
        ],
        [
            -0.001019075919679091,
            -0.0167334029711248,
            -0.007331256834222477,
            0.006600275205821321,
            -0.011863091996383024,
            -0.013280174183149113,
            -0.009783030490482653,
            -0.020450262313451845,
            -0.0125494894488144,
            0.00017449330677202858
        ],
        [
            -0.00882312977414916,
            -0.043277692020338765,
            -0.05469863149872428,
            -0.03738601114816803,
            -0.03575621633335288,
            -0.029878675240138375,
            0.013438199541640217,
            -0.040340243467631015,
            -0.031922527031113285,
            5.484075355692336e-05
        ],
        [
            0.015528353941313036,
            0.009552205501107525,
            0.0198151032174691,
            0.0269025351587098,
            0.025345274314595573,
            0.008142175045330463,
            0.018351368339824314,
            0.01820913767636123,
            0.051079501938930044,
            0.0014607582538344113
        ],
        [
            0.06761937957476474,
            0.10114017239988626,
            0.13401703171079227,
            0.05319868460946425,
            0.11650664639069502,
            0.09529932647406153,
            -0.003363118913939478,
            0.09333774766973973,
            0.04830360246752624,
            0.0007079442731893733
        ],
        [
            -0.005680240560993921,
            0.05754524187528248,
            -0.0024768879021836443,
            0.0008979172983184514,
            0.022869469105415485,
            0.012174637449184789,
            -0.005687770247317286,
            0.030586257831202557,
            0.02712054998045338,
            -0.0006979732270881145
        ],
        [
            -0.06058037112086534,
            -0.09552207489646286,
            -0.07528413797673877,
            -0.048557501690883215,
            -0.10402861336600022,
            -0.06771927497115648,
            -0.020277488308374947,
            -0.08136810472164213,
            -0.08742891790184923,
            -0.0016452226067076988
        ],
        [
            -0.01271038748515696,
            -0.049407795888690875,
            -0.029010238907849817,
            -0.009340672155234736,
            -0.021379850615817375,
            -0.021865250590844126,
            -0.004269516680444063,
            -0.02111241277441045,
            -0.010947085864058986,
            2.9913138303776373e-05
        ],
        [
            0.000673476259961836,
            -0.009029348198941245,
            -0.011531197190099096,
            0.0035800079296592624,
            -0.02378748590658558,
            -0.009970430669044739,
            0.004749015048209432,
            -0.009270106453420246,
            -0.017104785319971283,
            0.0004486970745566451
        ],
        [
            0.002640735861429322,
            -0.0027731692443488942,
            -0.02260677954869278,
            -0.019264407491195734,
            0.016901657073013776,
            -0.012409821505944274,
            -0.004518119342003968,
            -0.010339734121122601,
            0.007856460955284583,
            8.973941491132896e-05
        ],
        [
            0.021379917410542848,
            -0.0009654372947873191,
            0.004489877066834569,
            0.018972875900832603,
            0.015376803587857923,
            0.006444386489599524,
            0.020734532542257517,
            -0.00756379565018081,
            0.03363282249906646,
            0.00106191640978406
        ],
        [
            0.05590443726332331,
            0.08939357331482739,
            0.11570131548427715,
            0.04772955197425194,
            0.09732280912872043,
            0.07813604034646005,
            0.009046121391312861,
            0.10474710945856466,
            0.03264440020902276,
            0.0011965255321510536
        ],
        [
            -0.0021592594124214826,
            0.06068650715099566,
            0.015631730673647204,
            -0.0006297082351843786,
            0.05464206110197023,
            0.019983778136768215,
            -0.015853797550359455,
            0.03593439616971422,
            0.040982391993265754,
            -0.0014657437768850405
        ],
        [
            -0.0661985809737049,
            -0.10562895345523693,
            -0.0793929553663143,
            -0.05514611563308999,
            -0.11851065020823737,
            -0.07181182089316102,
            -0.011081138124966666,
            -0.08867722711760809,
            -0.09431103133203592,
            -0.0015006424382394464
        ],
        [
            -0.008799499028185581,
            -0.029584593402436743,
            -0.018497962159117254,
            -0.003405088975441367,
            -0.016318379598196486,
            -0.010881983472981166,
            0.013559727128270888,
            -0.005628278918148016,
            -0.011084046808683218,
            0.0001545512145695111
        ],
        [
            0.012612910658057197,
            0.03281746071590569,
            0.04222306902150502,
            0.02334584975627957,
            0.02048340210473104,
            0.03584926027232457,
            0.0018050115580596215,
            0.04082412265063923,
            0.016971555829555146,
            0.0001545512145695111
        ],
        [
            0.026566866149547175,
            0.0011833309965913474,
            0.03990357533384137,
            0.001737528278564271,
            0.06238106669331667,
            0.030634010896884167,
            0.016428591379713642,
            0.025492792746905746,
            0.0387692092010993,
            0.00016950778372139925
        ],
        [
            -0.0021474440394397,
            0.03148721517921105,
            -0.014637661950362812,
            0.006973435641486114,
            -0.022541426825344046,
            -0.017369286761259373,
            0.02151317311039036,
            -0.016579228849386285,
            0.03698232824127651,
            0.0011167571633409834
        ],
        [
            0.054631330824535806,
            0.07958294164001145,
            0.14232578945624447,
            0.053816731581034116,
            0.1160778426970614,
            0.10100726069833388,
            0.012954555056491762,
            0.12094432842662867,
            0.05052131789374403,
            0.0011217426863916128
        ],
        [
            0.006126270891056357,
            0.04099560647103184,
            -0.00635375592299281,
            -0.0040814422650838345,
            0.02387567779750205,
            0.00544700008830562,
            -0.02706765192337146,
            0.0057046808944124505,
            0.04075166185698831,
            -0.0012912504701130122
        ],
        [
            -0.06708178010409344,
            -0.09940510662778468,
            -0.09687199708406513,
            -0.05345523240898384,
            -0.09876884602453245,
            -0.07688630316893524,
            -0.023347209537026986,
            -0.10678449549228342,
            -0.10741737876525215,
            -0.0012413952396067179
        ],
        [
            -0.02098114857240757,
            -0.05862406759519784,
            -0.05765598595049537,
            -0.01977750309023485,
            -0.08134940286507997,
            -0.040312607334913486,
            0.006379883570481859,
            -0.043141649263994275,
            -0.03963181620436637,
            -9.47249379619584e-05
        ],
        [
            0.008533653136095387,
            0.00010115588574666212,
            -0.013858974783790057,
            0.009527252373067147,
            -0.01385885341166232,
            -0.008545592952910575,
            -0.017783941522376112,
            -0.018769418835633878,
            -0.028272163483852142,
            0.00017449330677202858
        ],
        [
            -0.019279734863030307,
            -0.03825879398334692,
            -0.056471387388581484,
            -0.035403596333698745,
            -0.01839632312563172,
            -0.034719690131100156,
            0.015464204985498026,
            -0.03259817653949981,
            0.00019465939700760715,
            0.0002692182447339871
        ],
        [
            0.034769688842152535,
            0.01321427231897604,
            0.012508698101328763,
            0.029339739254145597,
            0.02156337906760064,
            0.0010591865913912868,
            0.00851932611658976,
            0.012860999337849538,
            0.02974177342643461,
            0.0008275968264044787
        ],
        [
            0.04559257049346904,
            0.06399329536665,
            0.09297856125120113,
            0.04068614875107865,
            0.07365957591486566,
            0.08938367494418412,
            -0.013138879191413433,
            0.0744664595324199,
            0.025276086699843464,
            0.0010818585019865777
        ],
        [
            -0.0027707049642289594,
            0.07216147767803055,
            0.014853043507074448,
            -0.001574270587960891,
            0.04334116005070371,
            0.0007124188580670543,
            -0.0034197146119908373,
            0.02577293332654207,
            0.03304749416952213,
            -0.00081762578030322
        ],
        [
            -0.0604179097423658,
            -0.08422185672293903,
            -0.07476225189701446,
            -0.04341488443687758,
            -0.08846725124930416,
            -0.05694887517474001,
            -0.01926483537371404,
            -0.08544287678907964,
            -0.06543969582673173,
            -0.0015405266226444815
        ],
        [
            -0.007517531059661714,
            -0.05311039063940787,
            -0.03129659697140397,
            -0.011171490542715212,
            -0.04561983720839985,
            -0.02881262196095849,
            -0.0014561639374147811,
            -0.020450262313451845,
            -0.03731493203946262,
            0.0
        ],
        [
            -0.0020263364663763994,
            0.006658967638286384,
            -0.010760793929553647,
            0.004839424400027992,
            -0.018271109384814466,
            0.010473415549559578,
            -0.004104691198956262,
            0.03287831711913616,
            -0.00017646283012551223,
            0.0001695077837213992
        ],
        [
            -0.005343502431013003,
            -0.013792288444027356,
            0.0003479240531495398,
            -0.012489213331156573,
            0.014901980238482992,
            -0.014852645686738136,
            0.013423827853263362,
            -0.03947435440330058,
            0.005558683756652166,
            0.00025426167558209893
        ],
        [
            0.03888439248305972,
            0.04830711742472954,
            0.03785745054508105,
            0.033875970800195915,
            0.033856614469089996,
            0.024191341079231793,
            0.038403960426733996,
            0.020577598940559272,
            0.06042177827550785,
            0.001007075656227137
        ],
        [
            0.042745065604858495,
            0.06400602763446633,
            0.0927051923522979,
            0.03740933367539703,
            0.09306664042879009,
            0.06757164118370163,
            0.00020374545245721576,
            0.07342229919013907,
            0.02532130965027743,
            0.0010718874558853185
        ],
        [
            0.004117657484152604,
            0.06337851418605323,
            0.018058915139666676,
            0.005865615598106222,
            0.03173886787683722,
            0.02335703851291715,
            -0.016367936032479102,
            0.04235216217592824,
            0.019724909505094534,
            -0.001091829548087836
        ],
        [
            -0.05965877202828598,
            -0.10842069024792089,
            -0.08720467875012428,
            -0.05619562935839725,
            -0.10767293030718578,
            -0.07686226976167515,
            -0.020233164726593228,
            -0.08590128864666632,
            -0.07113792767172858,
            -0.0013959464541762293
        ],
        [
            -0.011898080592659122,
            -0.03927683915162922,
            -0.020254150236919677,
            -0.0046878279730391825,
            -0.040346333376948706,
            -0.011673369240617126,
            -0.0008909246735765985,
            -0.020552131615137775,
            -0.01678206772171506,
            0.00022434853727832255
        ],
        [
            -0.0038872577110077855,
            -0.010765127467394053,
            -0.0122436131084529,
            0.009923735335961026,
            -0.014599970808645168,
            -0.0057954844935769745,
            -0.0025200517341754103,
            -0.009728518311006962,
            -0.013898576720865308,
            -1.9942092202517546e-05
        ],
        [
            0.0037543347649627024,
            -0.032484811684725,
            -0.04608336923025946,
            -0.038342234764559086,
            -0.02255440770569339,
            -0.028850388743795724,
            0.015246666599900205,
            -0.039397952427036115,
            -0.012184274323754907,
            3.988418440503509e-05
        ],
        [
            0.0036657194675992766,
            0.038713368971426354,
            0.02683157162265154,
            0.032558248011754554,
            0.03422528376572598,
            0.007254655648654101,
            0.020274296052889607,
            0.00797127285692456,
            0.04344660742087941,
            0.0014109030233281175
        ],
        [
            0.046266046753430906,
            0.06197127567094218,
            0.09725305676132406,
            0.04694824731207872,
            0.09225834967190638,
            0.06799050913880611,
            -0.013542206799021184,
            0.09425457138491314,
            0.03494254196107727,
            0.00106191640978406
        ],
        [
            0.011620419327587117,
            0.07777566294759874,
            0.024470658404851076,
            0.0033117988665251896,
            0.03535866421734024,
            0.02521276088778579,
            0.004126722561511753,
            0.037436968369581825,
            0.04239070933186734,
            -0.0010519453636828012
        ],
        [
            -0.06029975601254792,
            -0.10999662601603383,
            -0.08657510189204415,
            -0.05083144809571566,
            -0.1110611883422779,
            -0.06547043472039055,
            -0.01421837947991178,
            -0.09675036927621858,
            -0.08528000300790448,
            -0.0018097448673784686
        ],
        [
            -0.006711131853654795,
            -0.03353069769245237,
            -0.03577819013221112,
            -0.014541595727313006,
            -0.03330304311288368,
            -0.026028180062681816,
            0.0028193709734804784,
            -0.0024448632404625026,
            -0.020954910387131626,
            0.00014458016846825232
        ],
        [
            -0.0008182145789887296,
            0.01598123797084544,
            -0.008217634779151106,
            0.022342981085430397,
            -0.01679196633309532,
            -0.001287503960362174,
            -0.011241907018866598,
            -0.020450262313451845,
            0.000415249006532753,
            0.0001296235993163641
        ],
        [
            -0.009721098120764937,
            -0.04897288992650051,
            -0.02576294774512078,
            -0.033059682347179126,
            0.007695459301928276,
            -0.021027514680635156,
            0.01549610710638924,
            -0.020450262313451845,
            -0.01575780315625508,
            0.00028916033693650463
        ],
        [
            0.03943676116995823,
            0.02599549687877034,
            0.05754829517213961,
            0.04163071110385522,
            0.06222532188620106,
            0.03393860439514712,
            0.02437324715421052,
            0.044771558090969304,
            0.06597737159048925,
            0.0011965255321510536
        ],
        [
            0.07765653892279245,
            0.15710930364533277,
            0.1840766758341894,
            0.07862023928912934,
            0.16604310567167418,
            0.13564455057597086,
            0.008332096309001724,
            0.15420465542708706,
            0.08534244314952222,
            0.0007727560728475551
        ],
        [
            0.05400806989974655,
            0.17163749927229743,
            0.12111070612014974,
            0.041782307530844054,
            0.16630548340711881,
            0.10081327676830604,
            0.02625176300657925,
            0.13861865226913872,
            0.10482959323120461,
            -0.0013909609311255997
        ],
        [
            -0.10021503978826848,
            -0.18541528521672535,
            -0.1714437191424501,
            -0.09217062760920772,
            -0.20584160221387232,
            -0.1347467311476117,
            -0.030643323729798777,
            -0.16767687057505226,
            -0.16085027392845797,
            -0.0010968150711384657
        ],
        [
            -0.03294716755971194,
            -0.06836023519414453,
            -0.05706782862255211,
            -0.022657835203022614,
            -0.0753169578761882,
            -0.048150931445598455,
            -0.02285229885337492,
            -0.060637701828553936,
            -0.025550527473486323,
            0.0002991313830377634
        ],
        [
            -0.004034949873280125,
            -0.003168605738286756,
            -0.009758441300241893,
            0.01029689577162582,
            -0.028326398291653232,
            -0.0061594189463726745,
            0.0045872836324705735,
            0.017801660469617453,
            -0.016765087400994028,
            -0.00013460912236699354
        ],
        [
            -0.021415363529488224,
            -0.06168682868949893,
            -0.07020610358196094,
            -0.04374139981808428,
            -0.039520526502144215,
            -0.051014340253443924,
            -0.012324721755494095,
            -0.08185198390465032,
            -0.026832738097716746,
            0.000269218244733987
        ],
        [
            0.007245777481080629,
            -0.02133382158645869,
            -0.019268365419662703,
            0.011474683396692859,
            -0.014488252883676556,
            -0.010645082744274531,
            0.03725773327129614,
            -0.028064992614475648,
            0.02473877663388724,
            0.0009572204257208429
        ],
        [
            0.09992260930696928,
            0.1884880334443203,
            0.19149077172868562,
            0.09201903118221891,
            0.20329876012296094,
            0.1414245850220235,
            0.0012078353061329705,
            0.1740437019304233,
            0.10666240712115246,
            0.0013161780853661591
        ],
        [
            0.02274459298993925,
            0.12129466133598277,
            0.03185990258126503,
            0.007929659257877197,
            0.0735589172548724,
            0.043244683020644936,
            -0.003721579051726487,
            0.04296337798604388,
            0.05194044100958545,
            -0.000972176994872731
        ],
        [
            -0.10653331049027892,
            -0.2112603471933593,
            -0.18052288014844758,
            -0.09207733750029154,
            -0.2181097327067838,
            -0.1299263163200156,
            -0.03906505594020637,
            -0.11827025925737278,
            -0.16060352030975475,
            -0.001560468714846999
        ],
        [
            -0.03126052306656191,
            -0.08162294637188638,
            -0.05701812518638788,
            -0.02803367772931875,
            -0.0781130426629934,
            -0.06027406873636876,
            -0.017518789818315533,
            -0.0977435949676565,
            -0.04769729125963207,
            -5.982627660755269e-05
        ],
        [
            0.011481588695051143,
            0.014102306823446986,
            0.027179495675801024,
            0.026809245049793595,
            0.0020098069215106484,
            0.00639288633118501,
            0.005995932694834005,
            0.008327815412825346,
            0.004615557801499831,
            3.9884184405035146e-05
        ],
        [
            -0.016464722250119634,
            -0.04426080958611456,
            -0.0606381921203486,
            -0.03564848286960376,
            -0.019029122325857295,
            -0.0320021984387624,
            0.010000080079262758,
            -0.03140121224469006,
            -0.01807519235856553,
            0.0003390155674427985
        ],
        [
            0.023252654028156017,
            0.014300922722747411,
            0.019922793995824917,
            0.029642932108123243,
            0.03462324710207115,
            0.016703218045765383,
            0.02679531988599404,
            0.008378750063668311,
            0.05015397115652867,
            0.0007528139806450379
        ],
        [
            0.08547536199348973,
            0.16041946373105015,
            0.15731137545975676,
            0.07662616321104557,
            0.14945668054458022,
            0.1181344967150452,
            0.019343508918085617,
            0.13181887638160242,
            0.07702079042169954,
            0.0014158885463787466
        ],
        [
            0.031603168883033717,
            0.13388232736927996,
            0.03776632757878001,
            0.019870793199151027,
            0.12976443229168283,
            0.0544099173649058,
            -0.009026676324544874,
            0.05936433555747972,
            0.06381765428377922,
            -0.0013660333158724528
        ],
        [
            -0.0997837786744333,
            -0.19704491131940444,
            -0.11581729016866038,
            -0.09031648669449821,
            -0.20198583635463857,
            -0.11438528518247054,
            -0.03544869963420186,
            -0.12496816584322312,
            -0.12798258177298433,
            -0.0012513662857079769
        ],
        [
            -0.02233105493557666,
            -0.05305168486859119,
            -0.048303456045594606,
            -0.018739650628542104,
            -0.05834318146616846,
            -0.039090336908542966,
            0.01421215295600825,
            -0.03542504966128457,
            -0.04024724092738802,
            -6.481179965818208e-05
        ],
        [
            -0.005863378842211608,
            -0.014272131707610158,
            -0.01625302362569997,
            0.013422114420318598,
            -0.036279049776754835,
            -0.006734504048667794,
            -0.02772043657883047,
            -0.015968013039270618,
            -0.006903879864940787,
            0.0002941458599871341
        ],
        [
            -0.016116168747156934,
            -0.03860436743570855,
